tree
version=v4
num_class=1
num_tree_per_iteration=1
label_index=0
max_feature_idx=11
objective=regression
feature_names=price_lag_24h price_lag_168h price_avg_prev24h wind_jutland_ms wind_northsea_ms wind_zealand_ms solar_rad_wm2 temp_c gas_eur_mwh hour_cph weekday month
feature_infos=[-4.0967373662500002:8.7280249024999996] [-4.0967373662500002:8.7280249024999996] [-0.57161822833333342:6.589323959375001] [0.10000000000000001:29.350000000000001] [0.10000000000000001:30.940000000000001] [0.10000000000000001:23.890000000000001] [0:857.66666666666663] [-8.1333333333333329:28.466666666666669] [15.524999618530273:339.19601440429688] -1:0:1:3:4:5:6:7:8:9:10:11:12:13:14:15:16:17:18:19:20:21:22:23:2 -1:4:0:1:2:3:5:6 -1:4:2:3:5:0:6:1:9:7:11:8:10
tree_sizes=5351 5567 5604 5584 5552 5599 5586 5562 5558 5602 5620 5601 5593 5583 5594 5603 5558 5564 5580 5525 5553 5564 5561 5538 5560 5517 5544 5573 5567 5562 5579 5596 5515 5529 5525 5520 5554 5549 5545 5535 5514 5558 5563 5530 5511 5539 5553 5532 5531 5590 5567 5544 5615 5603 5546 5552 5606 5616 5579 5650 5653 5565 5555 5602 5587 5586 5631 5611 5566 5573 5616 5597 5578 5569 5638 5596 5587 5626 5623 5620 5691 5590 5556 5542 5570 5667 5631 5640 5617 5584 5591 5579 5646 5607 5650 5633 5616 5576 5652 5610 5646 5588 5548 5609 5632 5733 5616 5666 5588 5601 5662 5679 5615 5664 5624 5618 5595 5649 5615 5673 5669 5611 5651 5640 5597 5627 5635 5735 5647 5663 5625 5597 5699 5587 5678 5686 5678 5709 5647 5682 5618 5686 5647 5657 5614 5630 5661 5655 5580 5693 5643 5540 5659 5708 5719 5660 5666 5640 5663 5671 5669 5655 5620 5656 5645 5620 5661 5782 5689 5571 5666 5631 5726 5688 5674 5668 5601 5731 5664 5727 5584 5660 5713 5719 5627 5692 5664 5654 5700 5685 5631 5675 5623 5628 5646 5656 5627 5725 5573 5783 5705 5642 5729 5630 5678 5631 5661 5698 5699 5670 5685 5641 5634 5621 5685 5644 5612 5711 5633 5646 5566 5671 5665 5675 5628 5727 5630 5661 5675 5641 5635 5708 5596 5638 5646 5634 5673 5655 5653 5646 5615 5642 5650 5693 5597 5649 5649 5684 5673 5654 5669 5624 5688 5623 5698 5646 5670 5633 5695 5585 5630 5656 5659 5701 5617 5671 5696 5652 5647 5618 5719 5649 5703 5682 5661 5629 5575 5657 5682 5683 5610 5603 5670 5636 5762 5695 5662 5636 5656 5681 5653 5724 5658 5610 5728 5660 5676 5633 5640 5591 5676 5743 5570 5635 5696 5653 5694 5636 5605 5658 5644 5680 5598 5731 5670 5663 5728 5602 5716 5644 5653 5709 5627 5707 5647 5656 5654 5644 5728 5648 5644 5697 5690 5595 5643 5655 5705 5745 5693 5704 5623 5759 5752 5635 5667 5662 5776 5663 5614 5665 5641 5702 5639 5672 5596 5601 5650 5621 5733 5671 5641 5672 5713 5678 5673 5673 5627 5681 5640 5664 5683 5610 5699 5659 5752 5636 5698 5645 5634 5653 5655 5645 5639 5691 5704 5677 5680 5548 5705 5697 5697 5660 5600 5652 5703 5710 5729 5664 5656 5641 5642 5638 5640 5649 5600 5636 5627 5658 5696 5648 5615 5592 5682 5592 5721 5606 5654 5620 5629 5677 5650 5615 5641 5660 5677 5669 5614 5646 5661 5703 5686 5609 5603 5628 5677 5721 5697 5690 5718 5607 5698 5710 5602 5662 5670 5612 5679 5642 5665 5655 5672 5672 5608 5604 5641 5649 5634 5735 5723 5692 5581 5657 5698 5627 5719 5671 5736 5657 5699 5663 5652 5739 5684 5651 5666 5670 5730 5663 5630 5620 5662 5688 5722 5640 5712 5666 5708 5587 5618 5699 5678 5628 5611 5707 5610 5646 5694 5705 5663 5648

Tree=0
num_leaves=63
num_cat=0
split_feature=0 0 0 0 0 8 8 3 3 1 3 1 3 1 1 4 4 3 6 1 8 1 1 0 8 1 0 0 0 4 8 0 8 0 3 1 0 7 8 4 4 8 4 4 8 0 8 1 4 4 8 0 5 1 3 8 8 2 8 8 8 1
split_gain=17509.8 3660.27 2479.17 868.2 564.31 445.347 434.018 348.148 272.691 303.63 233.783 301.726 215.411 209.557 190.217 186.574 132.563 118.942 110.614 110.473 102.3 100.595 82.7216 82.102 81.0513 75.0786 73.5029 64.6311 61.2935 59.9175 58.6923 50.672 49.2112 47.0804 44.8071 43.034 41.8647 41.2362 40.337 54.9073 40.1118 38.2142 35.4271 33.6328 33.3558 33.1039 32.5528 30.4969 29.7595 29.5772 27.8257 27.2475 26.986 25.7294 24.6134 23.9967 23.6121 23.2174 23.0315 22.7047 22.4891 22.3628
threshold=2.1579125212500005 1.0420062256250002 3.7782250981250001 0.6251066432812501 1.6254249568750003 243.77700042724612 115.76449966430665 9.9150000000000009 9.9650000000000016 1.2839487637500002 9.9150000000000009 1.0318687818750003 7.6450000000000005 3.7782250981250001 1.5731868406250002 12.585000000000003 10.405000000000003 8.3350000000000026 314.83333333333343 2.9455812075000005 136.07599639892581 1.8904750062500002 2.7345874018750007 0.86626876875000014 45.548498153686531 4.507887573125001 1.2660499956250002 4.8642936706250017 5.4667623900000004 12.245000000000003 132.96299743652347 0.12079992265625002 44.636999130249031 2.9469061281250002 12.125000000000002 0.53061894750000016 0.12079992265625002 5.0833333333333348 128.84049987792972 8.4450000000000021 9.9350000000000005 87.837001800537124 5.0250000000000012 9.5050000000000008 136.07599639892581 2.9469061281250002 74.164501190185561 0.70549999250000006 8.9350000000000005 10.215000000000002 87.231498718261733 2.5333062743750001 8.1450000000000014 0.88165471375000004 6.3050000000000006 89.702999114990249 189.29050445556643 1.7368492285677088 54.581998825073249 45.548498153686531 38.544498443603523 2.4506312562500003
decision_type=2 2 2 2 2 2 2 2 2 2 2 2 2 2 2 2 2 2 2 2 2 2 2 2 2 2 2 2 2 2 2 2 2 2 2 2 2 2 2 2 2 2 2 2 2 2 2 2 2 2 2 2 2 2 2 2 2 2 2 2 2 2
left_child=1 3 6 10 7 16 17 14 9 23 11 18 19 -7 26 21 24 42 35 33 48 43 -16 32 -4 -18 46 61 -15 51 -23 -12 47 57 50 60 -20 -10 -13 52 -22 -19 45 -6 -24 -2 -3 -5 -11 59 -9 -14 -40 -39 -32 -17 -31 -8 -25 -37 -1 -26
right_child=2 4 5 8 15 13 12 34 37 20 31 38 29 28 22 55 25 41 36 -21 40 30 44 58 27 -27 -28 -29 -30 56 54 -33 -34 -35 -36 49 -38 53 39 -41 -42 -43 -44 -45 -46 -47 -48 -49 -50 -51 -52 -53 -54 -55 -56 -57 -58 -59 -60 -61 -62 -63
leaf_value=0.98120541968787134 1.0828545514356955 1.0133211104499475 1.0892555702283437 0.9913829346779276 1.0469969264089309 1.1161567480612749 1.1296084489795359 0.99952782638288373 0.99508411122941742 1.0333639957589873 0.96581220766593157 1.008203351059862 1.0673668549830395 1.2226538313580251 1.036046957922601 1.0038835047315544 1.1047519221972013 1.0097785713795877 0.96920740625519997 1.1381314963805311 1.1099970889911477 1.0575178927704834 1.0587153216404916 1.0040383497257601 1.1445507482390886 1.1727490608861921 1.0257027645549266 1.2030197346662979 1.2748601679948135 1.0468118132076882 1.1167304543704215 0.97699036837924047 1.0058265121587358 1.1170039127337406 0.98781317918811817 0.99299759359669348 0.98123948566297314 0.97858254904593578 1.1240214154404964 1.0057147704611642 1.0402065519914452 1.0457912863063621 1.0643942060403426 1.0306410568813962 1.1065514968261545 1.149661420616956 1.0290000976276357 0.9985493197419647 1.0153865189348841 0.98504845667925001 1.018435807763721 1.0966218439050881 1.0456257968095106 0.98863329014611612 1.0764425616597237 1.0252996684624123 1.0825602793991986 1.0886612238706126 1.0164243040315268 1.0077788629781139 0.99148073550975058 1.1696399756370233
leaf_weight=2442 118 3559 31 3046 1249 34 38 811 1091 439 1418 1076 109 110 871 218 155 110 1296 326 50 466 108 4822 116 55 2535 133 115 166 64 3557 1240 352 704 1859 1635 1310 21 48 35 223 430 420 55 22 365 2896 484 1119 256 295 23 1239 93 327 64 389 407 302 681 379
leaf_count=2442 118 3559 31 3046 1249 34 38 811 1091 439 1418 1076 109 110 871 218 155 110 1296 326 50 466 108 4822 116 55 2535 133 115 166 64 3557 1240 352 704 1859 1635 1310 21 48 35 223 430 420 55 22 365 2896 484 1119 256 295 23 1239 93 327 64 389 407 302 681 379
internal_value=1.00878 1.00004 1.11225 0.991308 1.02352 1.17431 1.08576 1.01754 0.999087 1.00238 0.982733 0.986962 1.10036 1.23185 1.02225 1.04303 1.15716 1.05764 0.983964 1.11369 1.02877 1.04928 1.04216 1.00024 1.16818 1.12256 1.01907 1.17207 1.24934 1.07713 1.06643 0.973804 0.996766 1.10347 0.997604 0.987647 0.975919 0.98695 1.01092 1.0427 1.08126 1.0339 1.07151 1.04288 1.07486 1.09335 1.01478 0.994876 1.02394 0.991647 1.00406 1.08873 1.08304 0.983468 1.09287 1.01673 1.05676 1.09231 1.005 0.995063 0.983446 1.16376
internal_weight=48407 44637 3770 32536 12101 1128 2642 9264 17059 13419 15477 10502 1739 259 7493 2837 869 903 9334 1105 1008 2292 1034 12411 659 210 6459 628 225 634 623 4975 7182 779 1771 6403 2931 3640 1168 92 85 333 570 1669 163 140 3924 5942 923 3280 1067 404 44 2549 157 545 230 427 5229 2161 3123 495
internal_count=48407 44637 3770 32536 12101 1128 2642 9264 17059 13419 15477 10502 1739 259 7493 2837 869 903 9334 1105 1008 2292 1034 12411 659 210 6459 628 225 634 623 4975 7182 779 1771 6403 2931 3640 1168 92 85 333 570 1669 163 140 3924 5942 923 3280 1067 404 44 2549 157 545 230 427 5229 2161 3123 495
is_linear=0
shrinkage=1


Tree=1
num_leaves=63
num_cat=9
split_feature=2 1 1 4 3 8 8 8 3 1 1 2 6 4 3 7 2 2 3 8 1 4 5 1 9 2 1 8 10 5 3 2 1 9 1 5 8 8 1 11 2 10 8 9 8 2 1 7 11 8 10 9 7 5 2 3 8 1 5 4 1 1
split_gain=14176 2743.14 1545.35 1005.24 857.154 742.187 711.625 547.681 390.427 376.872 240.781 194.951 171.899 161.029 156.941 111.998 109.376 103.694 101.175 100.526 89.1187 82.9271 80.0405 79.8176 78.8254 77.5295 75.2793 68.3798 64.8188 63.2091 60.2632 53.1746 52.7155 47.5596 43.9166 44.1092 43.5186 42.2268 40.6939 39.5986 38.2319 37.1662 54.5768 36.9979 35.5822 35.4111 34.948 39.5908 34.6226 33.8688 36.3321 35.725 32.7659 31.8796 31.5071 30.7153 32.7845 30.408 29.6249 30.0827 29.3088 27.6491
threshold=2.2159059841927085 1.1676026017187502 3.5867811587500005 12.245000000000003 9.4550000000000018 50.539501190185554 243.77700042724612 115.44499969482423 7.8950000000000005 0.68373703187500012 1.5731868406250002 2.7960101453906252 256.16666666666669 8.4450000000000021 7.8150000000000004 6.7500000000000009 1.3811872407552086 0.77632802085937502 11.685 136.07599639892581 2.6261187743750005 12.925000000000002 8.2650000000000023 1.1141562650000003 0 0.73285994680338551 4.2307376100000003 85.505500793457045 1 6.8150000000000004 11.285000000000002 3.6651414076562507 5.4667623900000004 2 3.7782250981250001 8.5150000000000023 115.44499969482423 64.837997436523452 1.1347249987500003 3 0.8876942657812501 4 98.223999023437514 5 50.743999481201179 2.9816273561718756 2.8077125550000006 12.150000000000002 6 27.345499992370609 7 8 18.750000000000004 8.6650000000000009 0.91296536919270832 11.225000000000003 88.318500518798842 0.323456249375 6.285000000000001 6.3950000000000005 1.9309749600000001 1.9733562468750003
decision_type=2 2 2 2 2 2 2 2 2 2 2 2 2 2 2 2 2 2 2 2 2 2 2 2 1 2 2 2 1 2 2 2 2 1 2 2 2 2 2 1 2 1 2 1 2 2 2 2 1 2 1 1 2 2 2 2 2 2 2 2 2 2
left_child=1 4 8 7 5 9 14 10 11 12 29 36 17 19 31 25 33 49 27 39 38 23 48 -10 54 -6 45 -5 -14 37 44 -4 -8 -7 35 -21 -2 -3 -13 -9 -26 42 -18 -19 57 -16 -15 -48 -12 -1 -51 -52 60 -25 -11 56 -27 -17 -22 -60 -50 -29
right_child=2 3 6 18 15 16 32 13 21 24 22 20 28 46 26 30 41 43 -20 34 58 -23 -24 53 40 55 -28 61 -30 -31 -32 -33 -34 -35 -36 -37 -38 -39 -40 -41 -42 -43 -44 -45 -46 -47 47 -49 52 50 51 -53 -54 -55 -56 -57 -58 -59 59 -61 -62 -63
leaf_value=-0.022667456544019429 0.039340677530633222 0.01525624075880623 0.13637099262383398 -0.0076220222148496346 -0.026551297388023278 0.017858276791756042 0.21264235353469851 0.029018660041439381 0.0056619213227087914 -0.0030260696190883537 0.023986201130276372 0.068209726401696438 -0.036534387158287433 0.027526902714972885 0.031294357915009771 -0.038051463988122786 0.023466773617590937 0.0081534460452355791 -0.017885622800652919 0.10738779737025893 0.13225326199274864 0.024153698436719807 0.016149929610851294 0.078681658987028932 -0.011922617136603591 -0.010119903792597217 0.12267535108587016 0.0029221172314824774 -0.022101642137872347 0.0053482709899276082 -0.035848659306896818 0.17397514387761079 0.26424718957016435 0.0020075247811220274 0.15372322662310167 0.031638968871398408 0.074520431958477615 0.032502949562090273 0.099357726328147988 0.079409565529080517 -0.0039107652895071041 0.015179774170127454 0.055714197181991887 -0.0085970168645271225 -0.010802827399166652 0.089883678150957227 0.032245815718391295 0.089684794396162046 0.035011751911956025 -0.02249868052202306 0.00048344934144391128 -0.014993779737750266 0.090733766534498772 0.0496928165975144 0.0065095611921080765 -0.018685438807026434 0.01651547339744866 -0.024697278957104968 0.1290872566898664 0.08067855457572834 0.049427795950723691 0.024234442756409458
leaf_weight=2476 116 1639 264 958 2156 646 175 106 59 3228 423 132 1351 224 35 550 371 385 1373 152 274 247 493 255 4271 801 207 298 2261 1429 2879 146 69 1731 44 22 363 453 510 155 2286 563 203 2079 357 98 60 60 753 933 555 1162 35 151 1184 1068 135 1895 60 69 663 311
leaf_count=2476 116 1639 264 958 2156 646 175 106 59 3228 423 132 1351 224 35 550 371 385 1373 152 274 247 493 255 4271 801 207 298 2261 1429 2879 146 69 1731 44 22 363 453 510 155 2286 563 203 2079 357 98 60 60 753 933 555 1162 35 151 1184 1068 135 1895 60 69 663 311
internal_value=-5.42371e-11 -0.00723494 0.101193 0.0164037 -0.0136566 -0.00884926 0.153064 0.0270843 0.0781339 -0.012233 0.0217442 0.0924147 -0.0186837 0.0652897 0.128933 -0.0262038 0.0124998 -0.0144109 -0.00797658 0.0840325 0.104522 0.0475667 0.0340761 0.0600032 -0.00564521 -0.0199705 0.103817 0.000705683 -0.0276623 0.013454 -0.0307683 0.149762 0.227236 0.00639888 0.109096 0.0978104 0.0660009 0.0189908 0.0929535 0.0630986 -0.0091155 0.0252543 0.0342742 -0.00598156 -0.0255483 0.0744654 0.0391915 0.0609653 0.038792 -0.0184628 -0.0145343 -0.0100171 0.042649 0.0679001 -0.000466041 -0.0128905 -0.00627826 -0.0277013 0.122951 0.103194 0.0417616 0.0138058
internal_weight=48407 45177 3230 9651 35526 25685 994 6711 2236 22171 5888 1524 11202 823 750 9841 3514 7590 2940 479 1045 712 2367 465 10969 4160 340 1567 3612 3521 5681 410 244 2377 218 174 479 2092 642 261 6557 1137 574 2464 2802 133 344 120 1874 5126 2650 1717 1451 406 4412 2004 936 2445 403 129 1416 609
internal_count=48407 45177 3230 9651 35526 25685 994 6711 2236 22171 5888 1524 11202 823 750 9841 3514 7590 2940 479 1045 712 2367 465 10969 4160 340 1567 3612 3521 5681 410 244 2377 218 174 479 2092 642 261 6557 1137 574 2464 2802 133 344 120 1874 5126 2650 1717 1451 406 4412 2004 936 2445 403 129 1416 609
cat_boundaries=0 1 2 3 4 5 6 7 8 9
cat_threshold=8257984 96 4129664 2568 30 4128768 707 96 8258496
is_linear=0
shrinkage=0.05


Tree=2
num_leaves=63
num_cat=4
split_feature=0 0 0 0 0 0 4 4 4 1 0 1 1 4 4 0 8 4 4 1 8 8 1 0 0 8 1 1 1 1 8 8 1 8 0 4 1 10 5 8 10 1 1 10 4 1 1 0 1 4 8 8 8 2 4 10 8 5 7 5 8 6
split_gain=14420.7 3045.67 2051.83 735.165 463.197 421.493 297.811 288.892 222.376 260.05 198.715 186.982 153.406 152.418 148.769 123.461 117.214 107.546 106.243 90.2015 87.0034 84.6981 82.4573 71.4003 69.9822 59.5321 56.0583 52.5203 49.5279 49.1225 44.941 43.5217 41.641 39.7584 38.2491 35.1326 33.8865 33.0638 31.8883 31.1956 30.9501 29.0993 27.254 27.0452 26.8473 25.6171 25.1381 25.0563 24.9307 24.5826 24.2327 24.1368 23.7129 23.6156 23.3753 22.653 22.5581 21.4889 21.0045 20.9222 20.1485 19.635
threshold=2.1579125212500005 1.0420062256250002 3.5867811587500005 0.6251066432812501 1.6254249568750003 4.8642936706250017 12.145000000000001 12.525 12.245000000000003 1.2839487637500002 2.9469061281250002 0.99463582062500011 1.8276374818750003 12.085000000000003 11.875000000000002 0.0082875000000000015 243.77700042724612 9.8450000000000006 11.655000000000003 3.9897813412500001 115.76449966430665 136.07599639892581 1.9309749600000001 1.2660499956250002 0.85352889718750014 136.07599639892581 0.54213750812500006 2.7345874018750007 2.156696063125001 3.9897813412500001 87.837001800537124 123.31699752807619 2.6261187743750005 45.993999481201179 5.4667623900000004 5.2250000000000005 0.88165471375000004 0 10.425000000000002 172.74199676513675 1 2.9455812075000005 1.8904750062500002 2 10.325000000000001 0.70549999250000006 1.1942719523437502 0.39031051828125002 1.6240811918750002 9.9350000000000005 47.732000350952156 89.702999114990249 83.038997650146499 1.6705330745312503 14.495000000000003 3 83.980998992919936 9.6250000000000018 3.8666666666666667 6.3750000000000009 54.581998825073249 139.16666666666671
decision_type=2 2 2 2 2 2 2 2 2 2 2 2 2 2 2 2 2 2 2 2 2 2 2 2 2 2 2 2 2 2 2 2 2 2 2 2 2 1 2 2 1 2 2 1 2 2 2 2 2 2 2 2 2 2 2 1 2 2 2 2 2 2
left_child=1 3 6 11 7 17 10 12 9 24 20 15 23 22 28 55 25 32 26 57 48 59 40 56 33 -7 37 -14 46 -18 -8 -24 -4 45 -31 -12 -10 61 -9 -29 -6 53 -37 -25 -27 -5 -13 -20 -2 -23 -28 -15 -42 -22 -16 -1 -3 -19 -58 -11 -26 -17
right_child=2 4 5 8 13 16 30 38 36 21 35 14 27 51 54 18 29 19 47 -21 41 49 31 43 60 44 50 39 -30 34 -32 -33 -34 -35 -36 42 -38 -39 -40 -41 52 -43 -44 -45 -46 -47 -48 -49 -50 -51 -52 -53 -54 -55 -56 -57 58 -59 -60 -61 -62 -63
leaf_value=-0.029726677434423511 0.040069335934263893 0.0049667703332582861 0.1189354189296267 -0.015743221818895328 0.020359948599846654 0.079866264689536337 -0.0053145997717415228 -0.0044732499575477471 -0.02316858372933088 0.024454521914179038 0.11509094842096075 -0.0081688294366025621 0.027618733256781481 -0.002493224417917939 -0.014974248967859032 -0.024715357843106082 0.14423997021195564 0.086549153575237764 -0.034179824115405016 0.13429579002568956 0.10732527429737695 0.090686727076768892 0.043670872799188333 0.033608427310633238 -0.0040737462115097217 0.17832330630375789 -0.016664146025634624 0.04771221862194136 0.0403173300962235 0.19302365084489187 0.037448029013617039 0.073175071566650762 0.14636510439166747 -0.0013796619745261186 0.24077647437220034 0.072815121157799631 -0.014226399658869945 -0.020186112133450854 -0.017993072630149119 0.098284381918790867 0.029004935654710531 0.094631354202642848 0.09946002749241753 0.014876035324571601 0.11859792172908784 -0.008959926781384641 0.0071791776115104362 -0.026463290958038177 0.060340201733333459 0.033435666089256605 -0.0019490130213503456 0.017433157305648098 0.043557569402456281 0.067991779519485041 -0.029365303847846205 -0.042904990902978071 0.038502540045270796 0.041163801576476547 0.010501173342935053 0.0085874146665198426 0.0077690864486760621 -0.035999633035828156
leaf_weight=844 297 3715 201 2934 525 21 73 1171 2104 364 211 549 483 249 488 772 22 141 2110 122 41 50 345 217 4990 130 2709 119 79 66 388 196 444 934 115 148 2134 2432 695 41 507 162 273 2501 22 2648 519 2098 310 30 312 390 625 551 669 1126 95 32 227 484 387 770
leaf_count=844 297 3715 201 2934 525 21 73 1171 2104 364 211 549 483 249 488 772 22 141 2110 122 41 50 345 217 4990 130 2709 119 79 66 388 196 444 934 115 148 2134 2432 695 41 507 162 273 2501 22 2648 519 2098 310 30 312 390 625 551 669 1126 95 32 227 484 387 770
internal_value=7.37217e-07 -0.00793035 0.0939053 -0.0158955 0.0134855 0.144276 0.066893 0.00807209 -0.00873657 -0.00545443 0.0752702 -0.0237861 0.0125065 0.0311627 -0.0106452 -0.0260846 0.189017 0.12638 -0.0240547 0.101372 0.0645115 0.0200379 0.0374114 0.0102851 -0.00744358 0.158777 -0.0202782 0.0358433 0.00211541 0.214789 0.0306765 0.05436 0.137817 -0.0109277 0.223364 0.0984389 -0.0186658 -0.0241808 -0.00950877 0.0606713 0.0318778 0.0758542 0.0900932 0.01655 0.169679 -0.0125253 -0.000710388 -0.0303326 0.0504218 0.0692176 -0.0151444 0.00966842 0.0367154 0.0707159 -0.0232954 -0.0376277 0.00606714 0.0781542 0.0187624 0.0153983 -0.00322138 -0.0301546
internal_weight=48407 44637 3770 32536 12101 1316 2454 9264 17059 12821 1993 15477 7398 2837 2304 13173 376 940 11203 295 1361 928 2198 6755 11893 173 6995 643 1147 203 461 541 645 6516 181 632 4238 3974 1866 160 1657 754 421 2718 152 5582 1068 4208 607 80 3021 639 1132 592 1157 1970 4037 173 322 848 5377 1542
internal_count=48407 44637 3770 32536 12101 1316 2454 9264 17059 12821 1993 15477 7398 2837 2304 13173 376 940 11203 295 1361 928 2198 6755 11893 173 6995 643 1147 203 461 541 645 6516 181 632 4238 3974 1866 160 1657 754 421 2718 152 5582 1068 4208 607 80 3021 639 1132 592 1157 1970 4037 173 322 848 5377 1542
cat_boundaries=0 1 2 3 4
cat_threshold=96 96 1 3
is_linear=0
shrinkage=0.05


Tree=3
num_leaves=63
num_cat=3
split_feature=0 0 0 0 0 8 8 4 3 1 4 3 1 1 3 8 1 4 4 1 1 8 1 0 8 1 0 4 0 0 0 5 1 0 8 0 10 3 0 8 4 8 3 4 3 8 8 4 8 10 8 1 0 0 7 5 7 1 9 4 0 8
split_gain=13014.8 2749.56 1855.5 663.765 418.136 315.993 304.927 226.076 207.621 214.505 188.781 176.303 220.209 161.834 161.737 110.808 105.62 105.433 96.1392 89.8732 82.1693 81.3197 67.0603 56.2537 55.9111 47.468 45.5624 43.4284 42.1993 41.9191 40.7575 40.1768 40.0649 39.0745 36.791 34.3766 33.5627 33.0565 32.8781 32.8848 31.9982 55.62 31.6882 30.5943 29.3651 29.3031 28.0387 26.4801 27.1792 25.5599 24.7634 24.3496 24.0743 23.3857 23.255 22.6083 21.7831 21.7418 20.7467 19.997 19.8641 19.7424
threshold=2.1579125212500005 1.0420062256250002 3.7782250981250001 0.6251066432812501 1.5079142695312502 243.77700042724612 115.76449966430665 12.345000000000001 8.8050000000000015 1.2399792707812503 12.585000000000003 9.9150000000000009 1.0318687818750003 3.7782250981250001 7.5050000000000008 85.505500793457045 1.8904750062500002 12.345000000000001 10.025 0.12120900062500001 2.8077125550000006 136.07599639892581 2.6261187743750005 0.86626876875000014 123.31699752807619 0.88165471375000004 5.4667623900000004 12.925000000000002 0.17816874500000002 1.2137649303125002 4.507887573125001 7.6050000000000013 2.7345874018750007 3.0910563662500006 56.087999343872077 3.0910563662500006 0 11.485000000000001 -1.0000000180025095e-35 45.03599929809571 8.8350000000000026 113.18299865722658 6.6650000000000009 6.1150000000000011 11.415000000000001 87.837001800537124 189.29050445556643 5.3550000000000013 115.76449966430665 1 128.84049987792972 3.7782250981250001 1.7973812100000002 2.5333062743750001 4.3500000000000014 9.3950000000000014 3.5166666666666675 0.73456114562500019 2 10.405000000000003 1.3941374968750002 216.27349853515628
decision_type=2 2 2 2 2 2 2 2 2 2 2 2 2 2 2 2 2 2 2 2 2 2 2 2 2 2 2 2 2 2 2 2 2 2 2 2 1 2 2 2 2 2 2 2 2 2 2 2 2 1 2 2 2 2 2 2 2 2 1 2 2 2
left_child=1 3 6 11 7 17 18 15 9 23 16 12 19 -7 20 29 31 22 35 36 33 -11 47 34 -18 54 -15 50 -13 -3 59 52 56 -8 57 -2 -1 -9 -21 58 41 -14 -26 -37 -27 -20 -19 -4 -49 60 -16 -12 -6 -52 -10 -34 -17 -5 -40 -24 -31 -22
right_child=2 4 5 8 10 13 14 37 25 21 51 28 40 26 27 32 24 46 45 38 61 -23 30 -25 42 44 -28 -29 -30 49 -32 -33 55 -35 -36 43 -38 -39 39 -41 -42 -43 -44 -45 -46 -47 -48 48 -50 -51 53 -53 -54 -55 -56 -57 -58 -59 -60 -61 -62 -63
leaf_value=-0.037832914921774659 0.05219710254569955 0.0043168226418958911 0.13843044482171538 -0.013153846903700495 0.025311088294318287 0.089694921979132827 0.072365513911183302 -0.003264112401265987 -0.011662672122385453 0.014647937237512156 0.0019562056914265396 -0.036776418938276552 0.005338425079911318 0.18372658572413705 0.033183045494370164 0.038156500790380382 0.038151330377881904 0.046500058854488956 0.0025388935600767584 -0.031814446626624041 0.10735588859956902 0.072282457317818294 0.13698617658867371 -0.0022179553577029196 0.083851463700595652 -0.0071031601369012142 0.2287376474297565 0.037102585013157559 -0.027051840378365135 0.02229662268162631 0.15887718105748777 0.013967288617590851 0.074815277397283358 0.096741103617444868 0.0076488272448009187 0.14387328296899796 -0.022776988013613674 -0.017105672419601408 -0.014616419812227428 -0.009267281525821033 -0.0055196409768412183 0.059120050748741187 0.049829569130686792 0.06161730992965974 -0.017657610214636518 0.032778831382370963 0.10088108567491411 0.05368867477884999 0.10921184395750363 0.011217535543396624 0.050435523548675282 0.038752242883977793 0.037118990266462787 0.076945919723878334 -0.023097094395566217 0.022211454063653949 0.018876139090322173 -0.0070237617085260363 -0.021449826857169035 0.10129264068344367 0.0579210027307272 0.1585028506955132
leaf_weight=1010 496 3113 60 3276 1036 34 473 965 554 842 710 1689 438 110 50 193 491 38 120 474 333 66 267 4481 133 1562 115 168 3286 180 248 483 64 252 295 20 816 780 1789 897 676 54 141 26 1140 241 63 27 120 2336 111 48 740 332 2253 30 608 2590 4348 46 50 20
leaf_count=1010 496 3113 60 3276 1036 34 473 965 554 842 710 1689 438 110 50 193 491 38 120 474 333 66 267 4481 133 1562 115 168 3286 180 248 483 64 252 295 20 816 780 1789 897 676 54 141 26 1140 241 63 27 120 2336 111 48 740 332 2253 30 608 2590 4348 46 50 20
internal_value=4.52686e-07 -0.0075341 0.08921 -0.0151021 0.0128141 0.142894 0.0662898 0.00654732 -0.00829974 -0.00449018 0.0265986 -0.0225998 -0.0189269 0.191368 0.0785302 0.010794 0.0321915 0.128446 0.0427172 -0.021488 0.0904705 0.0188372 0.134762 -0.00648053 0.048249 -0.0162867 0.206732 0.0590571 -0.0303533 0.00821695 0.143737 0.0267537 0.0271457 0.0808381 -0.00958077 0.0560319 -0.0314367 -0.00945117 -0.0190685 -0.0182096 0.00154061 0.0112413 0.0663438 0.0973808 -0.0115562 0.0227268 0.0804209 0.110439 0.0990137 0.0129485 0.0665386 0.0042863 0.030231 0.0703034 -0.0208404 0.0580268 0.0235217 -0.0104472 -0.0195166 0.13174 0.0287893 0.110254
internal_weight=48407 44637 3770 32536 12101 1128 2642 8319 17059 11550 3782 15477 10502 259 1739 6574 3024 869 903 9334 1078 908 768 10642 765 5509 225 661 4975 5679 561 2259 895 725 6161 542 1826 1745 7508 7034 1168 492 274 46 2702 361 101 207 147 2566 493 758 1776 443 2807 94 801 5866 6137 313 230 353
internal_count=48407 44637 3770 32536 12101 1128 2642 8319 17059 11550 3782 15477 10502 259 1739 6574 3024 869 903 9334 1078 908 768 10642 765 5509 225 661 4975 5679 561 2259 895 725 6161 542 1826 1745 7508 7034 1168 492 274 46 2702 361 101 207 147 2566 493 758 1776 443 2807 94 801 5866 6137 313 230 353
cat_boundaries=0 1 2 3
cat_threshold=96 1 16516032
is_linear=0
shrinkage=0.05


Tree=4
num_leaves=63
num_cat=10
split_feature=0 0 0 0 3 8 0 4 3 8 0 3 8 10 9 8 0 8 4 0 8 8 10 5 8 10 4 8 8 0 0 8 10 5 8 4 7 0 9 0 4 4 4 2 10 0 7 9 4 3 6 7 4 4 4 6 10 9 8 7 3 8
split_gain=11746.1 2483.64 1678.59 648.778 347.56 359.067 345.684 246.342 205.518 197.456 163.689 159.763 146.432 110.02 108.602 106.66 95.179 94.6153 88.862 73.1619 69.3521 62.1921 59.9056 54.5375 48.9523 48.2922 42.4203 42.2474 41.765 40.5642 40.0624 36.7684 34.1771 33.9649 34.8068 32.2816 32.0663 31.836 31.4489 29.9443 29.4305 29.2943 27.8875 26.0751 24.6184 24.3321 24.0983 23.1874 23.0763 22.7102 22.0706 21.4617 20.2205 19.6655 19.5996 19.4337 19.2574 19.2339 19.385 18.6611 18.39 20.7443
threshold=2.1579125212500005 1.0744715143750001 3.5867811587500005 0.6251066432812501 10.475000000000003 83.980998992919936 4.8642936706250017 12.145000000000001 10.135000000000003 56.087999343872077 2.9469061281250002 9.7050000000000018 53.850999832153327 0 1 187.7289962768555 1.3767558970312501 243.77700042724612 9.5550000000000015 0.86182847125000017 115.76449966430665 132.96299743652347 2 8.2250000000000032 136.07599639892581 3 10.115 115.76449966430665 24.947999954223636 0.30382500625000003 4.507887573125001 87.837001800537124 4 10.915000000000001 60.388999938964851 8.4050000000000029 5.3166666666666673 5.4667623900000004 5 0.028265253750000007 5.2250000000000005 10.595000000000001 8.5950000000000006 1.6705330745312503 6 3.9897813412500001 8.3500000000000032 7 10.265000000000002 7.8550000000000013 333.83333333333343 5.8500000000000005 11.605000000000002 6.3950000000000005 10.025 139.16666666666671 8 9 28.759500503540043 14.250000000000002 7.6150000000000011 198.77099609375003
decision_type=2 2 2 2 2 2 2 2 2 2 2 2 2 1 1 2 2 2 2 2 2 2 1 2 2 1 2 2 2 2 2 2 1 2 2 2 2 2 1 2 2 2 2 2 1 2 2 1 2 2 2 2 2 2 2 2 1 1 2 2 2 2
left_child=1 3 7 11 5 16 18 10 9 19 20 12 14 50 22 23 42 24 45 44 53 32 46 27 -8 35 56 -15 -16 51 -20 -9 -11 34 -6 59 -10 -19 -34 -24 -12 47 -3 -22 55 -4 -1 -30 -26 -23 -7 -13 -39 -2 -21 -5 -18 58 -46 -14 61 -45
right_child=2 4 6 8 33 13 17 31 36 21 40 29 25 15 28 -17 26 37 30 54 43 49 39 -25 48 -27 -28 -29 41 -31 -32 -33 38 -35 -36 -37 -38 52 -40 -41 -42 -43 -44 60 57 -47 -48 -49 -50 -51 -52 -53 -54 -55 -56 -57 -58 -59 -60 -61 -62 -63
leaf_value=-0.022925602710151864 0.057832378660604145 0.009705439612995425 0.11324921053035458 -0.011893836557927135 -0.011527374756210407 0.020295601006804942 0.072102101785796027 -0.0051758145103358655 -0.011397188941547299 -0.0041065645865092952 0.10420515563568516 -0.024118207739999363 0.03152122756637829 0.036361513761632651 -0.021714970053886076 0.093342690704499978 0.011828937173848576 0.16838560612186004 0.083596301412305576 -0.0011589523209940137 0.10050845501366362 0.063497261576795666 -0.029693597014620307 0.02144803633033435 0.16197996442206206 -0.0056144343638056537 0.0068892349981331917 0.057059655968779294 -0.0014931263643567349 -0.024411436070752208 0.12682538967415252 0.033503636332755653 0.02676727314510139 -0.016232049923414382 0.0072108176457709172 0.0047130402529405226 -0.02154639377690238 0.21868164310088525 0.0075691736504099275 -0.018191515176385092 0.081325720615171765 -0.019211973815834182 0.0016556391339535915 0.067332680178334089 -0.010338059765507933 0.13341449230624355 -0.038689725183522206 -0.011947559987112121 0.10855249327917893 0.019281476070272162 -0.00062247145144379162 -0.035569252050446136 0.16687474419241366 0.038975127434551837 -0.0078222221516348577 -0.022616696482858897 0.026085517000004929 -0.010116693125217483 0.0025217674037581045 0.084659901708364488 0.053208074639172577 0.10046876326273635
leaf_weight=319 213 2609 253 1446 476 740 21 73 1149 347 211 517 95 1097 1499 85 363 76 253 4550 58 76 780 476 128 550 531 318 741 2817 68 388 326 687 517 135 2412 104 663 2061 421 986 1831 434 500 366 1010 1985 24 47 152 1962 23 394 1457 597 1273 3727 708 20 209 53
leaf_count=319 213 2609 253 1446 476 740 21 73 1149 347 211 517 95 1097 1499 85 363 76 253 4550 58 76 780 476 128 550 531 318 741 2817 68 388 326 687 517 135 2412 104 663 2061 421 986 1831 434 500 366 1010 1985 24 47 152 1962 23 394 1457 597 1273 3727 708 20 209 53
internal_value=-4.5263e-07 -0.00715836 0.0847495 -0.013966 0.0132749 0.0169913 0.130309 0.0603173 -0.00751302 -0.00486062 0.0679363 -0.021473 -0.0178091 0.0317647 -0.0195602 0.038357 0.0105783 0.170828 0.114102 -0.00682022 0.0581717 0.0125797 -0.0256085 0.0360882 0.143658 0.00272486 0.0191685 0.0410131 -0.0146429 -0.0285164 0.0927539 0.0273787 0.00944747 -0.0076848 -0.00177144 0.0204768 -0.0182716 0.193982 0.014102 -0.0212745 0.0889643 -0.0118264 0.0063858 0.0682987 -0.0103024 0.125172 -0.0346452 -0.00915507 0.153544 0.0466018 0.0165456 -0.0331811 0.209299 0.0455923 -0.00277513 -0.014954 0.023154 -0.00832957 -0.00277801 0.0407627 0.0656145 0.0709389
internal_weight=48407 44637 3770 33482 11155 9475 1316 2454 18005 14444 1993 15477 10181 2868 9381 1976 6607 376 940 12985 1361 1459 4170 1891 173 800 2167 1415 5211 5296 321 461 1336 1680 993 250 3561 203 989 2841 632 3712 4440 754 6978 619 1329 2726 152 123 892 2479 127 607 6007 2043 1636 4935 1208 115 696 487
internal_count=48407 44637 3770 33482 11155 9475 1316 2454 18005 14444 1993 15477 10181 2868 9381 1976 6607 376 940 12985 1361 1459 4170 1891 173 800 2167 1415 5211 5296 321 461 1336 1680 993 250 3561 203 989 2841 632 3712 4440 754 6978 619 1329 2726 152 123 892 2479 127 607 6007 2043 1636 4935 1208 115 696 487
cat_boundaries=0 1 2 3 4 5 6 7 8 9 10
cat_threshold=96 130048 96 1 80 2035584 96 8126848 96 8126912
is_linear=0
shrinkage=0.05


Tree=5
num_leaves=63
num_cat=6
split_feature=0 0 0 0 0 0 4 4 4 1 0 1 1 4 4 3 1 4 1 6 0 1 1 0 0 1 1 4 1 1 1 10 7 5 4 3 11 10 5 4 5 2 2 1 5 10 5 4 4 0 3 6 5 1 10 1 10 4 7 0 1 7
split_gain=10600.7 2246.21 1514.93 498.538 388.352 311.98 232.589 222.324 175.104 220.15 147.729 144.157 121.222 113.444 97.2594 96.1834 83.8284 80.2351 76.5599 73.1734 64.2747 63.429 60.2699 60.0095 58.0821 54.78 46.8512 38.024 37.0981 34.0709 33.9384 29.7649 29.1078 28.7906 26.7472 26.5642 25.8512 25.1664 23.6017 23.497 23.0047 22.9941 22.8352 22.3268 22.0546 21.9382 21.9103 21.6982 21.6117 21.5977 21.2764 19.9481 18.9628 18.8298 18.7489 19.6054 18.1556 17.8139 17.3204 16.4109 16.0165 15.6908
threshold=2.1579125212500005 1.0134616193750003 3.5867811587500005 0.55122027500000004 1.6254249568750003 4.8642936706250017 12.745000000000003 12.145000000000001 13.045000000000002 1.2839487637500002 2.9469061281250002 1.1191420581250002 1.5731868406250002 12.085000000000003 12.245000000000003 9.7850000000000019 3.7782250981250001 9.8450000000000006 3.9897813412500001 307.50000000000006 0.80965621937499999 1.9309749600000001 2.7345874018750007 5.4667623900000004 1.2137649303125002 2.7345874018750007 1.9309749600000001 10.265000000000002 0.76855852546875014 0.66485951578125013 2.4506312562500003 0 4.950000000000002 7.205000000000001 6.1150000000000011 12.125000000000002 1 2 9.2650000000000023 8.3050000000000015 9.3950000000000014 3.7822442754427095 2.3887947924479174 2.9455812075000005 6.8150000000000004 3 10.535000000000002 9.5550000000000015 10.595000000000001 0.028265253750000007 11.745000000000003 110.50000000000001 9.6250000000000018 1.8904750062500002 4 1.6763124843750006 5 9.7050000000000018 12.616666666666669 -1.0000000180025095e-35 0.60900625187500013 18.750000000000004
decision_type=2 2 2 2 2 2 2 2 2 2 2 2 2 2 2 2 2 2 2 2 2 2 2 2 2 2 2 2 2 2 2 1 2 2 2 2 1 1 2 2 2 2 2 2 2 1 2 2 2 2 2 2 2 2 1 2 1 2 2 2 2 2
left_child=1 3 7 11 6 17 12 10 9 20 26 15 24 21 54 19 41 30 52 29 28 37 33 -18 -3 46 44 -24 51 56 -4 -21 -10 -11 -12 -8 -9 -6 43 -28 -27 -7 -38 -23 -2 -26 61 -22 -31 -17 -15 -5 -19 -36 55 -13 -1 -47 -45 -33 -34 -14
right_child=2 4 5 8 13 16 35 36 32 22 34 14 25 50 -16 49 23 18 -20 31 47 38 27 -25 45 40 39 -29 -30 48 -32 59 60 -35 53 -37 42 -39 -40 -41 -42 -43 -44 58 -46 57 -48 -49 -50 -51 -52 -53 -54 -55 -56 -57 -58 -59 -60 -61 -62 -63
leaf_value=-0.02468813369399489 0.051987102681711021 0.0033153246523844604 0.098871891702452822 -0.011214709368539195 0.017268413159371762 0.07044446907937528 -0.0047284199455409695 0.001739105752874837 -0.011321870782421943 0.020826663007702834 0.0968600303646623 0.0099571332204599974 0.021540818027323386 0.015247067387240659 -0.020014809850455367 -0.03638196170534734 0.15063337985989 0.073292449800997764 0.11712871822910231 -0.034906768708922162 -0.0025351556585569688 0.04467821402178733 0.088336781336163933 0.19574293408803881 0.0056938581536741502 0.06209476306029256 0.072564006292104383 0.023987198865506799 -0.0063406425247185044 -0.0073260442173567059 0.1250551342169236 -0.03117566133370786 -0.027582379660721051 0.0031525811295576712 0.060765175953036467 -0.016687029618361673 0.021882725976638099 0.031893081459989071 0.017137162054985246 0.053579800122327381 0.020782577697916527 0.13235046987732252 0.047335165267501804 0.050095035381994002 0.032507110783115849 0.017825112080848807 -0.0059478406787192937 -0.0088071466512826806 -0.018934410161489518 -0.027598877321170195 -0.0038166560421557792 -0.017895536042336464 0.03065807324019261 0.084258898167148308 0.001384183269862305 0.042223765295656294 -0.016408299055329565 0.0079359467364090042 0.087941073626279842 -0.020001763878648753 -0.018827484983858805 0.066345932697877294
leaf_weight=1218 482 3951 167 2812 525 20 1170 101 1058 479 259 153 850 412 616 910 139 141 122 856 4646 362 44 157 930 126 392 48 2520 1238 478 434 705 444 132 770 206 1132 58 279 46 60 154 59 208 1643 73 1961 593 3032 227 1854 32 241 453 68 2079 630 62 1353 2017 20
leaf_count=1218 482 3951 167 2812 525 20 1170 101 1058 479 259 153 850 412 616 910 139 141 122 856 4646 362 44 157 930 126 392 48 2520 1238 478 434 705 444 132 770 206 1132 58 279 46 60 154 59 208 1643 73 1961 593 3032 227 1854 32 241 453 68 2079 630 62 1353 2017 20
internal_value=-2.74432e-08 -0.0068 0.080512 -0.0140078 0.0106538 0.123794 0.00610623 0.0573015 -0.00875441 -0.00630252 0.0645395 -0.0215177 0.00976173 0.0270184 -0.00565394 -0.0232648 0.162286 0.108397 0.0867966 -0.0200378 -0.00795633 0.0324094 0.0161714 0.17456 0.00737173 0.0250963 0.0552631 0.0547631 -0.0112291 -0.0165545 0.118276 -0.026796 -0.0183596 0.0123247 0.0845161 -0.00947488 0.0260098 0.0275561 0.0472743 0.0646704 0.0510462 0.116874 0.031885 0.0508933 0.0461149 0.0123754 0.0203631 -0.00439672 -0.0110856 -0.0296264 0.00847482 -0.0138693 0.0654063 0.0759448 0.00747112 0.0190245 -0.0195917 0.0150181 0.0694872 -0.0225891 -0.021095 0.0225708
internal_weight=48407 44637 3770 31591 13046 1316 10209 2454 18588 14808 1993 13003 8269 2837 1290 11713 376 940 295 7771 13793 2198 1015 296 7154 1115 1361 92 7186 5128 645 2643 3780 923 632 1940 461 1657 541 671 172 80 360 483 690 3203 943 6607 1831 3942 639 4666 173 373 674 221 3297 2273 121 1787 2722 870
internal_count=48407 44637 3770 31591 13046 1316 10209 2454 18588 14808 1993 13003 8269 2837 1290 11713 376 940 295 7771 13793 2198 1015 296 7154 1115 1361 92 7186 5128 645 2643 3780 923 632 1940 461 1657 541 671 172 80 360 483 690 3203 943 6607 1831 3942 639 4666 173 373 674 221 3297 2273 121 1787 2722 870
cat_boundaries=0 1 2 3 4 5 6
cat_threshold=96 517 96 96 1 96
is_linear=0
shrinkage=0.05


Tree=6
num_leaves=63
num_cat=6
split_feature=0 0 0 0 0 8 8 3 3 3 1 1 1 3 1 8 3 3 5 8 1 5 1 8 8 1 0 8 0 1 1 1 3 3 10 8 0 0 10 0 8 0 10 3 8 0 11 5 5 8 5 3 1 0 8 3 3 10 8 8 8 10
split_gain=9567.27 2028.98 1371.52 429.607 379.764 238.548 233.123 174.854 158.576 150.69 174.669 135.121 129.365 123.199 110.684 86.5068 85.4905 76.2133 73.7831 71.8622 67.2076 58.1009 54.736 51.9358 49.7512 44.4813 43.9318 41.9648 40.3031 35.2906 31.8757 31.8667 48.7048 29.8589 29.7619 43.6092 29.4796 28.7148 28.212 27.8131 27.4714 26.8691 26.7889 25.9108 25.8332 25.232 22.9451 22.7783 22.5026 23.5939 22.322 22.2575 21.0942 20.4788 20.4297 19.508 19.4696 19.0095 18.8585 17.2349 16.9716 16.7367
threshold=2.1579125212500005 0.99761973500000012 3.7782250981250001 0.546037483125 1.3941374968750002 243.77700042724612 115.76449966430665 10.325000000000001 9.1450000000000014 8.6450000000000014 1.2399792707812503 3.4043251037500002 0.95944374124999998 7.5050000000000008 1.8276374818750003 83.980998992919936 10.045000000000002 8.9950000000000028 6.9650000000000007 136.07599639892581 2.8077125550000006 6.1250000000000009 0.12120900062500001 43.623500823974616 187.7289962768555 0.88165471375000004 0.77181478250000013 45.548498153686531 1.7973812100000002 5.4667623900000004 1.2109454406250002 3.9897813412500001 10.015000000000002 11.485000000000001 0 189.29050445556643 5.4667623900000004 3.2414125056250005 1 3.0910563662500006 64.837997436523452 0.29047499687500006 2 11.975000000000003 93.636501312255874 1.1473675712500002 3 11.105000000000002 8.8150000000000031 123.31699752807619 7.6650000000000009 10.135000000000003 3.7782250981250001 4.507887573125001 60.388999938964851 4.9650000000000007 11.285000000000002 4 172.74199676513675 216.27349853515628 128.84049987792972 5
decision_type=2 2 2 2 2 2 2 2 2 2 2 2 2 2 2 2 2 2 2 2 2 2 2 2 2 2 2 2 2 2 2 2 2 2 1 2 2 2 1 2 2 2 1 2 2 2 1 2 2 2 2 2 2 2 2 2 2 1 2 2 2 1
left_child=1 3 6 12 8 21 18 14 15 10 23 -7 17 20 28 45 30 22 39 -12 37 27 42 26 48 56 61 -4 38 -13 -14 32 53 54 35 51 -29 -8 -6 -2 -24 -19 -1 -27 -20 -3 -17 52 49 -16 -40 -15 -9 -23 -10 -41 -11 60 -36 -22 -32 -5
right_child=2 4 5 9 7 11 13 47 33 25 19 29 16 34 24 46 -18 41 44 -21 59 31 40 -25 -26 43 -28 36 -30 -31 57 -33 -34 -35 58 -37 -38 -39 50 55 -42 -43 -44 -45 -46 -47 -48 -49 -50 -51 -52 -53 -54 -55 -56 -57 -58 -59 -60 -61 -62 -63
leaf_value=-0.034078330003042022 0.045057898923835681 0.0021076281357800715 0.060685176105686911 -0.017550790302047974 0.037200520577025602 0.061027657107583115 0.0631364706165152 0.0033294898404499459 -0.0074863719915786763 -0.015774724063325696 0.012816488637157245 0.16470922657682852 -0.0083382914643342146 0.062034502888781776 0.03459243541266524 0.010167321964265563 -0.021505072908601115 -0.031640947427690275 0.0076712226058376345 0.06728803758707011 0.093088946848347023 0.086529916493151948 -0.017505328587407425 0.00037565526820963822 0.075926996975959782 -0.0068187383273784381 -0.0053253989731002135 0.1209614388193145 0.028861516363738696 0.20758949675980737 0.0125097189201058 0.11458415482952088 0.039171544943625736 -0.015232466599896409 0.045594318089964947 0.089221452717852395 0.16584204256534577 0.085541022796782537 0.017452922473767615 0.12128129715011234 0.00090087186349678029 -0.023835618462325112 -0.018885252379099073 -0.017000971317703038 0.033228407772129931 0.0087595234855153345 0.030383607483186581 -0.011437404528001745 0.019058362739609491 0.055212535258389032 0.0047162397044517848 0.026207814231101013 0.046587511226534845 0.12544302865862847 0.0055711838112677305 0.056488188714362113 -0.023533406891559139 0.00088964130762906278 0.020944650486862962 0.14087761886417868 0.047054707607690323 -0.010210424990074983
leaf_weight=807 460 2943 27 1145 150 28 529 465 972 2241 733 163 691 139 605 250 856 2249 205 66 333 146 4630 2012 84 1908 4939 429 927 68 146 135 48 874 223 117 40 196 1564 21 212 2163 622 929 191 2765 460 304 166 180 441 63 30 44 433 26 1265 390 119 20 47 2973
leaf_count=807 460 2943 27 1145 150 28 529 465 972 2241 733 163 691 139 605 250 856 2249 205 66 333 146 4630 2012 84 1908 4939 429 927 68 146 135 48 874 223 117 40 196 1564 21 212 2163 622 929 191 2765 460 304 166 180 441 63 30 44 433 26 1265 390 119 20 47 2973
internal_value=-2.12266e-07 -0.00646022 0.0764866 -0.0135216 0.00963264 0.122641 0.0567811 0.0207404 0.00335392 -0.00858628 -0.00526118 0.164759 -0.0205361 0.0674837 0.0248946 0.00737716 -0.00928463 -0.0227795 0.0361699 0.017316 0.0779048 0.110088 -0.0192371 -0.00689088 0.0390418 -0.0148077 -0.00850513 0.1213 0.0201437 0.177332 -0.00107371 0.0951795 0.0841727 -0.00797613 0.0504883 0.0629568 0.124789 0.0691934 0.0163937 0.0488012 -0.0166994 -0.0278144 -0.0278359 -0.010153 0.019998 0.00532986 0.0238363 -0.000664747 0.0357838 0.0393206 0.0145788 0.0508608 0.00595119 0.0955414 -0.00346223 0.0854383 -0.0185741 0.00753662 0.0359658 0.0957965 0.0198916 -0.0123188
internal_weight=48407 44637 3770 31024 13613 1128 2642 4916 8697 18211 11868 259 12813 1739 4117 6418 2130 10683 903 799 1078 869 6271 11069 1035 6343 9057 496 3082 231 1274 373 238 2279 661 319 469 725 2155 507 4842 4412 1429 2837 396 5708 710 799 951 785 2005 202 495 190 1405 47 3506 583 342 353 193 4118
internal_count=48407 44637 3770 31024 13613 1128 2642 4916 8697 18211 11868 259 12813 1739 4117 6418 2130 10683 903 799 1078 869 6271 11069 1035 6343 9057 496 3082 231 1274 373 238 2279 661 319 469 725 2155 507 4842 4412 1429 2837 396 5708 710 799 951 785 2005 202 495 190 1405 47 3506 583 342 353 193 4118
cat_boundaries=0 1 2 3 4 5 6
cat_threshold=15 1 96 520 1 96
is_linear=0
shrinkage=0.05


Tree=7
num_leaves=63
num_cat=12
split_feature=8 8 1 4 3 8 3 8 1 1 6 1 9 8 10 7 2 3 9 5 5 4 10 3 3 2 9 4 9 10 4 11 6 5 1 8 1 8 4 1 7 8 1 5 6 2 3 3 2 10 1 1 8 2 7 9 8 9 8 11 8 1
split_gain=7688.04 1300.29 1133.09 573.461 482.745 436.005 417.774 304.658 240.077 230.931 155.77 150.384 120.001 107.325 92.6864 85.5497 82.2425 79.9706 69.2907 69.076 56.3723 53.5099 53.4787 51.7474 48.746 44.1068 43.7735 42.4681 42.3972 41.0405 39.8446 38.3886 38.3381 37.1873 36.7503 36.2284 32.4556 32.3679 31.8146 31.1556 30.7845 30.3291 40.3318 29.1569 29.1178 28.9734 27.5645 25.7869 25.4364 25.1724 23.7398 22.4332 35.1988 22.0149 21.7094 21.6324 21.4289 21.1859 21.0177 20.7394 20.7095 19.4348
threshold=115.44499969482423 189.29050445556643 1.02576252 11.395000000000001 9.4550000000000018 243.77700042724612 8.8050000000000015 50.539501190185554 1.4607749937500001 2.6261187743750005 348.16666666666669 3.4043251037500002 0 27.345499992370609 1 6.5166666666666666 3.0850901095052086 11.905000000000003 2 6.7950000000000008 7.205000000000001 10.735000000000001 3 11.285000000000002 11.045000000000002 0.587648667701823 4 6.3950000000000005 5 6 8.5950000000000006 7 79.833333333333357 5.3450000000000006 4.507887573125001 85.505500793457045 3.7782250981250001 57.827499389648445 9.7550000000000008 5.4667623900000004 5.2500000000000009 216.27349853515628 4.2307376100000003 8.6350000000000033 425.16666666666669 1.5744450552864586 11.905000000000003 4.8050000000000006 2.289334894817709 8 1.7035375212500001 3.9897813412500001 210.99649810791018 1.5744450552864586 5.5833333333333339 9 49.763999938964851 10 88.318500518798842 11 136.07599639892581 0.14804999812500005
decision_type=2 2 2 2 2 2 2 2 2 2 2 2 1 2 1 2 2 2 1 2 2 2 1 2 2 2 1 2 1 1 2 1 2 2 2 2 2 2 2 2 2 2 2 2 2 2 2 2 2 1 2 2 2 2 2 1 2 1 2 1 2 2
left_child=2 3 6 9 8 12 7 10 30 14 13 -7 33 -1 16 25 -2 31 53 36 50 41 61 37 44 -8 43 -21 -9 32 35 48 -20 -3 38 -4 -11 -6 -35 -13 -25 -14 -43 -16 56 57 58 -47 -5 -33 -10 52 -23 -15 -37 -24 -17 -31 -27 -30 -29 -12
right_child=1 5 4 17 23 11 15 28 20 19 22 39 21 18 26 24 -18 -19 29 27 -22 51 55 40 -26 46 -28 60 59 45 -32 49 -34 34 -36 54 -38 -39 -40 -41 -42 42 -44 -45 -46 47 -48 -49 -50 -51 -52 -53 -54 -55 -56 -57 -58 -59 -60 -61 -62 -63
leaf_value=-0.015605342825041 0.018205057245584185 0.12920198181132578 0.0089122839653038351 0.01967323335843061 -0.0077607832702448268 0.062793585662975132 -0.020229441256451451 0.019045622439463082 0.022323652670404211 0.082222257079337821 -0.033655855408584005 0.15865448122195777 0.072455023298306123 0.0015409347457914619 0.080607390419065367 -0.018958948791274799 0.063518338809714067 -0.009900525078905667 -0.0087457732685142543 0.094791584012701241 0.014275642645510084 0.056461038450959705 -0.0035602080506344775 -0.003804855862896318 -0.028038674516025004 -0.0078154224648532798 0.04459506836324717 0.026130154717600707 0.0093097508391994932 0.00073473995378116807 0.0019453139418863534 -0.0020227979258363536 -0.022125034752891078 0.10511818004590345 0.1246986485198959 0.04508673429065807 0.10954944518509142 0.0060444275580557897 0.058480691796902455 0.19814055311507073 -0.017606704398335612 0.11817501220810281 0.052723972282547042 0.040091326183084253 -0.029468131143446697 0.07754514895379544 -0.017293346501110026 -0.00090038278880952445 0.045931291294355803 0.023152708523101299 0.033508095450597034 0.071587417611191348 0.00031505674832379044 0.048680904285633007 0.016479297905001779 -0.016480003300515474 -0.0064436988735929353 -0.0066630736498520778 0.011808365205070004 -0.0019126194848924681 0.060143740514708721 -0.020500093801598809
leaf_weight=3056 425 193 2896 175 1039 38 1682 746 761 298 652 181 420 2660 304 2637 131 282 1972 68 904 71 403 556 2872 1510 541 66 996 1209 2322 218 735 82 91 110 171 718 66 69 1478 89 32 52 591 20 810 22 195 175 1260 62 46 25 167 2256 393 4929 150 697 139 493
leaf_count=3056 425 193 2896 175 1039 38 1682 746 761 298 652 181 420 2660 304 2637 131 282 1972 68 904 71 403 556 2872 1510 541 66 996 1209 2322 218 735 82 91 110 171 718 66 69 1478 89 32 52 591 20 810 22 195 175 1260 62 46 25 167 2256 393 4929 150 697 139 493
internal_value=-2.23172e-07 0.060908 -0.00651909 0.0433378 0.00641147 0.100441 -0.0115291 -0.00741781 0.0130822 0.0578519 -0.00961529 0.155466 0.0866844 -0.00727131 0.0462624 -0.0195898 0.0283711 0.0128512 -0.00507041 0.0805466 0.0246542 0.0699966 -0.0186289 -0.00840458 -0.0231742 -0.0139845 0.0564071 0.0605509 0.00918896 -0.0071924 0.0069224 0.0212601 -0.0123329 0.110323 0.0996945 0.0105646 0.0921859 -0.00211927 0.0843204 0.169553 -0.0138339 0.0788093 0.100866 0.0726486 -0.0193159 -0.00492442 -0.00973184 0.0364546 0.03263 0.009484 0.0292966 0.0472718 0.0343865 0.00197251 0.0278397 -0.0145425 -0.0173357 -0.00521559 -0.00604219 0.00470545 0.049193 -0.0277491
internal_weight=48407 4680 43727 3240 12211 1440 31516 20871 8420 2195 18432 288 1152 14628 1453 10645 556 1045 11572 742 2925 720 3804 3791 6493 4152 897 273 2439 8887 5495 763 2707 432 239 3173 469 1757 148 250 2034 541 121 356 3621 6180 2470 42 370 393 2021 179 117 2685 277 2659 3030 6138 1660 1693 205 1145
internal_count=48407 4680 43727 3240 12211 1440 31516 20871 8420 2195 18432 288 1152 14628 1453 10645 556 1045 11572 742 2925 720 3804 3791 6493 4152 897 273 2439 8887 5495 763 2707 432 239 3173 469 1757 148 250 2034 541 121 356 3621 6180 2470 42 370 393 2021 179 117 2685 277 2659 3030 6138 1660 1693 205 1145
cat_boundaries=0 1 2 3 4 5 6 7 8 9 10 11 12
cat_threshold=8127424 96 8257664 96 4132800 8323968 96 2144 116 917504 66368 1083
is_linear=0
shrinkage=0.05


Tree=8
num_leaves=63
num_cat=8
split_feature=0 0 0 0 0 0 4 0 4 4 4 1 1 10 8 5 4 8 4 8 9 1 8 1 8 5 8 8 10 0 0 1 4 8 0 1 5 7 10 8 1 11 7 8 1 0 11 7 7 8 10 9 5 4 8 1 4 8 8 5 8 8
split_gain=7895.49 1504.66 1358.22 323.315 280.692 232.796 190.026 145.744 143.002 139.307 115.317 161.847 102.469 99.5475 73.2656 73.0607 68.9615 66.4173 62.9036 61.9504 55.0476 52.7617 48.3809 43.9266 42.7886 37.258 33.1474 32.9732 32.1366 32.7547 31.261 29.1115 28.6828 26.9425 26.8445 26.6181 26.1067 25.7068 25.5898 34.2529 25.5432 25.0017 23.8501 23.7926 21.9501 21.6717 21.6391 20.0956 19.5748 19.545 19.5264 21.3211 18.625 18.0533 19.2335 18.0142 17.751 17.5028 17.1175 16.7911 16.3846 16.3033
threshold=2.0199875643750005 0.9570042362500002 3.5867811587500005 0.53989376062500016 1.3767558970312501 4.8642936706250017 10.785000000000002 2.9469061281250002 12.345000000000001 12.985000000000001 12.025 1.2614050331250002 1.1611774181250001 0 83.980998992919936 9.5350000000000019 14.175000000000002 93.636501312255874 8.6450000000000014 243.77700042724612 1 3.9897813412500001 136.07599639892581 0.72066249875000021 115.44499969482423 7.6650000000000009 136.07599639892581 136.07599639892581 2 0.13353259531250003 1.7666250612500001 4.2307376100000003 11.325000000000001 24.947999954223636 1.1473675712500002 2.6261187743750005 6.1850000000000014 5.0833333333333348 3 198.77099609375003 2.5318062593750006 4 9.7500000000000018 128.84049987792972 2.7345874018750007 5.4667623900000004 5 4.2500000000000009 6.5833333333333339 73.569000244140639 6 7 10.485000000000001 9.0750000000000011 113.18299865722658 2.4506312562500003 10.265000000000002 57.827499389648445 156.04350280761722 6.4050000000000011 184.33899688720706 44.330499649047859
decision_type=2 2 2 2 2 2 2 2 2 2 2 2 2 1 2 2 2 2 2 2 1 2 2 2 2 2 2 2 1 2 2 2 2 2 2 2 2 2 1 2 2 1 2 2 2 2 1 2 2 2 1 1 2 2 2 2 2 2 2 2 2 2
left_child=1 3 6 12 8 18 7 24 14 13 11 23 15 26 34 20 53 -8 40 27 28 36 59 41 -2 30 -6 -7 49 -30 43 -21 33 -22 -3 47 -20 -12 -26 -40 42 57 -4 -15 -24 -33 -19 -16 -17 -1 51 -43 -10 54 -14 -9 -29 -5 -37 -13 -48 -25
right_child=2 4 5 10 9 19 17 55 52 -11 37 22 16 25 35 48 -18 46 21 31 32 -23 44 61 38 -27 -28 56 29 -31 -32 45 -34 -35 -36 58 -38 -39 39 -41 -42 50 -44 -45 -46 -47 60 -49 -50 -51 -52 -53 -54 -55 -56 -57 -58 -59 -60 -61 -62 -63
leaf_value=-0.014944475903511735 0.037664916803610483 0.0011056074531477912 0.11101726646302268 -0.0067262154264187204 0.039972338110405521 0.059303239165317448 0.0043983513333198691 0.066908328507505235 -0.0057618778887934159 -0.0021676852209268197 -0.0089935008491428027 0.020276712004182535 0.0080042110245646045 0.016333701276331988 0.0301497557409619 -0.021469231355814921 -0.022728202433430291 0.012056734544875542 0.084493261143064102 0.11415083533333195 -0.018446033051739603 0.10115020141687268 0.02640297421305958 -0.0055228852549418332 0.032581439763911209 0.0089177150146178413 0.079474557761568587 0.13354286660905929 -0.031900013250210087 -0.020692868041764428 0.029616622141025752 0.14284819579515301 -0.019927710484229557 -0.0085638903213999338 0.0074086442886963635 0.032264575957956294 0.050575518792273316 -0.017341010782052954 0.057540103984438234 0.10041816152778327 0.1113138976260292 -0.022989318951913772 0.07144512421986525 0.043586526460768216 0.076359192338273985 0.17994652503245587 0.035279267113657239 0.011392702581656818 -0.029491498729349364 0.0249622036521032 -0.0097440043196142176 -0.010480909781219738 -0.015429607863827952 -0.0020818526222392926 0.04261645845836029 0.084673530749444448 0.086683865636587143 0.011183785619602229 0.082661652516411707 0.0049062761659688639 0.056580913622195209 0.0011420617488708915
leaf_weight=745 766 4204 64 1506 312 21 246 291 1398 775 1274 313 245 1719 194 1193 355 121 92 31 990 153 45 4539 206 810 64 128 1129 1543 774 61 1493 2274 2824 63 148 3341 537 51 389 779 94 84 43 111 407 541 2097 32 2621 716 774 479 48 280 24 150 23 411 116 1150
leaf_count=745 766 4204 64 1506 312 21 246 291 1398 775 1274 313 245 1719 194 1193 355 121 92 31 990 153 45 4539 206 810 64 128 1129 1543 774 61 1493 2274 2824 63 148 3341 537 51 389 779 94 84 43 111 407 541 2097 32 2621 716 774 479 48 280 24 150 23 411 116 1150
internal_value=4.7176e-07 -0.00633427 0.0643703 -0.0128235 0.00681929 0.106765 0.0459026 0.0540067 0.00214737 0.017136 -0.00829883 -0.00576523 -0.0188769 0.0211117 0.00528938 -0.0202874 -0.004489 0.0264983 0.0934645 0.140015 -0.0177635 0.0782049 0.0158062 -0.00729354 0.0460957 0.0182177 0.0454864 0.11803 -0.0226305 -0.0253334 0.0212116 0.158751 -0.0141573 -0.0115612 0.0036383 0.0194231 0.0635773 -0.0150366 0.0542292 0.0602347 0.104428 -0.0103666 0.0874743 0.0176034 0.0508134 0.16679 0.0349402 0.0163435 -0.0265825 -0.0131319 -0.0124538 -0.0171081 -0.00920701 0.00389821 0.0136745 0.0756198 0.126144 -0.0050733 0.0457429 0.0115512 0.0392534 -0.0041756
internal_weight=48407 44070 4337 29511 14559 1316 3021 2131 10021 4538 16888 12273 12623 3763 7849 11496 1127 890 940 376 8206 393 812 11461 1560 3387 376 173 3449 2672 2577 203 4757 3264 7028 821 240 4615 794 588 547 5772 158 1803 88 172 644 735 3290 777 4116 1495 2172 772 293 571 152 1656 86 724 523 5689
internal_count=48407 44070 4337 29511 14559 1316 3021 2131 10021 4538 16888 12273 12623 3763 7849 11496 1127 890 940 376 8206 393 812 11461 1560 3387 376 173 3449 2672 2577 203 4757 3264 7028 821 240 4615 794 588 547 5772 158 1803 88 172 644 735 3290 777 4116 1495 2172 772 293 571 152 1656 86 724 523 5689
cat_boundaries=0 1 2 3 4 5 6 7 8
cat_threshold=1 129024 1 96 3587 526 96 130944
is_linear=0
shrinkage=0.05


Tree=9
num_leaves=63
num_cat=7
split_feature=0 0 0 0 0 0 3 4 3 1 1 4 4 1 0 0 4 8 1 1 10 8 8 8 8 8 7 3 0 3 1 10 8 10 1 8 10 3 4 5 11 8 5 9 10 8 5 0 1 0 8 1 0 1 4 7 6 8 3 7 6 8
split_gain=7136.9 1666.91 867.986 411.243 269.432 180.465 149.581 143.803 128.067 132.162 109.329 106.533 93.1558 91.7455 86.9533 68.1586 65.5124 61.9054 54.0425 53.4495 51.139 63.0234 49.7136 41.9033 40.7811 34.6055 34.504 34.4287 33.5906 33.0365 32.1698 31.7719 31.1782 27.757 27.3578 24.6586 24.2526 22.4529 22.1093 21.7392 21.0968 20.9536 20.4247 20.4644 20.2284 19.9635 19.1615 18.9397 18.1801 17.2084 16.9625 16.5546 16.4378 15.9424 15.9029 15.8668 15.6677 15.5063 14.8493 14.651 14.6494 14.521
threshold=2.3060749818750002 1.0744715143750001 3.7782250981250001 0.64136005484375014 1.6512313081250001 5.4667623900000004 10.635000000000003 9.8450000000000006 8.8050000000000015 1.2295812225000005 0.77787502312500012 11.815000000000003 10.265000000000002 2.7345874018750007 2.8106686400000007 0.07662499875000002 12.345000000000001 127.15900039672853 2.6261187743750005 1.2109454406250002 0 115.44499969482423 136.07599639892581 65.224498748779311 216.27349853515628 56.087999343872077 5.0833333333333348 7.5050000000000008 0.82970739671875005 9.6650000000000009 3.7782250981250001 1 260.9930038452149 2 2.9455812075000005 189.29050445556643 3 11.415000000000001 5.3550000000000013 10.605000000000002 4 140.79249572753909 7.8950000000000005 5 6 47.732000350952156 9.3950000000000014 1.3941374968750002 2.156696063125001 1.2873640282812502 83.980998992919936 1.0104980256250002 4.507887573125001 1.6240811918750002 7.6550000000000011 10.550000000000002 230.83333333333334 80.328498840332045 7.785000000000001 6.116666666666668 314.83333333333343 193.65699768066409
decision_type=2 2 2 2 2 2 2 2 2 2 2 2 2 2 2 2 2 2 2 2 1 2 2 2 2 2 2 2 2 2 2 1 2 1 2 2 1 2 2 2 1 2 2 1 1 2 2 2 2 2 2 2 2 2 2 2 2 2 2 2 2 2
left_child=1 3 7 10 6 16 13 14 9 25 15 19 20 23 53 44 18 50 38 60 21 -6 -11 27 -7 28 -10 36 -5 33 39 41 52 -17 59 -18 47 51 -4 57 -33 -19 43 -25 58 -35 -13 -3 -21 -38 -9 -28 54 -2 -20 -27 -40 -14 -1 -16 -12 -15
right_child=2 4 5 8 12 24 -8 17 26 22 11 46 30 61 34 29 35 31 32 48 -22 -23 -24 42 -26 55 37 -29 -30 -31 -32 40 -34 45 -36 -37 49 -39 56 -41 -42 -43 -44 -45 -46 -47 -48 -49 -50 -51 -52 -53 -54 -55 -56 -57 -58 -59 -60 -61 -62 -63
leaf_value=-0.01422046573732583 0.03968977346852106 0.017131118777877145 0.10488399688975286 -0.0082070463523260823 0.031528336859514693 0.091029523998498924 -0.0097075704508297646 -0.0037869416432429665 -0.0057060437498423645 0.01162755275506254 -0.005497111455574401 -0.012537390119951104 0.0020298074974420765 0.038949576455576597 0.078434226033849183 -0.020170418569432608 0.027204377292410327 0.050812809758128664 0.10583895590171913 0.0059638837763234028 0.020077149574007011 0.059796658109917189 0.057134282558035925 0.029350282961968333 0.15961220882421623 0.014145075887353913 -0.014060457385270373 -1.0906203224033271e-05 -0.0024426509020769628 -0.021957309877226123 0.040377670585455258 0.031095431776043372 0.13964663251406617 -0.01371146303886266 0.086270505155583752 0.07790631658899097 0.0045540082371838672 -0.019292386084460336 0.075343054809021745 -0.003601908130454331 0.069729089347327397 0.015740289431085543 0.0075631295371120085 0.014059992340098127 -0.030539211448531157 0.00016438699386660076 -0.022008675366429722 0.051142880066912227 0.031088620996507374 0.011965456692020832 0.023906039347256363 -0.0049703542588324283 0.11488855580381792 0.054992599112372247 0.083001792064557489 -0.0021138371039627758 0.028641047825415929 0.018017361802858827 -0.026646302196949235 0.059968396259678737 -0.016208443063463539 0.082241681353612386
leaf_weight=489 280 317 59 4524 858 25 1211 73 1608 964 1700 853 206 162 163 1985 38 62 209 504 804 256 64 337 163 353 1767 1601 5726 2670 94 118 72 3655 266 65 2059 1469 124 233 189 136 624 863 1534 279 1428 47 84 1264 228 699 232 434 120 261 21 575 473 315 393 22
leaf_count=489 280 317 59 4524 858 25 1211 73 1608 964 1700 853 206 162 163 1985 38 62 209 504 804 256 64 337 163 353 1767 1601 5726 2670 94 118 72 3655 266 65 2059 1469 124 233 189 136 624 863 1534 279 1428 47 84 1264 228 699 232 434 120 261 21 575 473 315 393 22
internal_value=4.62883e-07 -0.00526965 0.0699398 -0.0109166 0.0111242 0.105773 0.00656629 0.0520867 -0.00560041 -0.00267476 -0.0166926 -0.0105241 0.023938 0.00926745 0.0614559 -0.0194538 0.0968288 0.0351383 0.101459 -0.00376642 0.0306059 0.0376862 0.0144607 0.0083656 0.150492 -0.00429619 -0.0118771 0.00611155 -0.00498686 -0.0173403 0.0123956 0.0458364 0.108672 -0.0152576 0.0734177 0.0592007 0.00877009 -0.0143989 0.0790792 0.00980166 0.056329 0.0254379 0.0149004 0.0187158 -0.0267268 -0.0126951 -0.0184668 0.0209473 0.00955313 0.00735105 0.0171898 -0.0114838 0.104696 0.0489915 0.0975093 0.00723371 0.0685793 0.0138004 -0.0201209 0.0662653 -0.00750836 0.0441258
internal_weight=48407 45015 3392 33482 11533 1128 8507 2264 17435 11892 16047 4962 3026 7296 1458 11085 940 806 837 2681 1918 1114 1028 7112 188 10864 5543 5288 10250 8589 1108 505 633 5919 744 103 3687 3935 204 1014 307 198 1824 1200 2496 3934 2281 364 588 3323 301 2466 561 714 329 614 145 781 962 478 2093 184
internal_count=48407 45015 3392 33482 11533 1128 8507 2264 17435 11892 16047 4962 3026 7296 1458 11085 940 806 837 2681 1918 1114 1028 7112 188 10864 5543 5288 10250 8589 1108 505 633 5919 744 103 3687 3935 204 1014 307 198 1824 1200 2496 3934 2281 364 588 3323 301 2466 561 714 329 614 145 781 962 478 2093 184
cat_boundaries=0 1 2 3 4 5 6 7
cat_threshold=15 48 96 1 580 8258432 3
is_linear=0
shrinkage=0.05


Tree=10
num_leaves=63
num_cat=4
split_feature=0 0 0 0 0 0 4 0 4 4 1 10 1 4 8 4 1 3 4 1 4 6 1 1 5 1 10 8 10 1 8 8 5 8 8 8 0 1 6 8 1 8 0 0 8 11 3 4 0 4 1 5 1 5 4 3 6 8 5 8 0 8
split_gain=6444.42 1232.53 1107.16 261.412 235.474 189.988 160.211 136.11 128.515 119.308 93.0605 88.3221 85.4811 77.1217 70.7476 68.9551 66.2258 65.9404 61.5041 58.2856 50.0467 46.1467 39.5687 38.5446 37.0705 34.8441 32.0599 41.5716 30.7265 30.1997 29.9874 29.9305 28.1277 27.5908 27.1961 26.5822 24.3912 22.7029 21.8128 21.5347 20.0888 19.409 19.2368 18.5183 18.517 17.5835 17.2462 17.1358 16.9544 16.6617 16.4976 15.6824 18.1272 15.2898 14.5096 14.488 14.4395 14.3884 13.5844 13.5635 13.5263 13.4512
threshold=2.0199875643750005 0.92401761265625015 3.5867811587500005 1.360593795625 0.497756251875 5.4667623900000004 12.245000000000003 2.6270687868750007 12.745000000000003 13.605000000000002 0.99463582062500011 0 0.95944374124999998 10.325000000000001 83.980998992919936 10.545000000000002 3.9897813412500001 8.2950000000000017 13.875000000000002 2.5318062593750006 10.985000000000001 470.83333333333343 2.9455812075000005 3.4043251037500002 7.6050000000000013 2.6261187743750005 1 198.77099609375003 2 2.6261187743750005 87.837001800537124 136.07599639892581 7.4350000000000014 128.84049987792972 44.865499496459968 260.9930038452149 1.7666250612500001 1.2109454406250002 246.50000000000003 38.889999389648445 1.42143950734375 184.33899688720706 1.1225021343750001 0.74149449953125013 115.44499969482423 3 12.045000000000002 9.4050000000000029 3.0910563662500006 6.7250000000000005 0.50039375312500012 2.8650000000000007 1.1347249987500003 9.4850000000000012 13.415000000000001 7.0150000000000006 1.0000000180025095e-35 113.80200195312501 7.205000000000001 136.07599639892581 3.9897813412500001 243.77700042724612
decision_type=2 2 2 2 2 2 2 2 2 2 2 1 2 2 2 2 2 2 2 2 2 2 2 2 2 2 1 2 1 2 2 2 2 2 2 2 2 2 2 2 2 2 2 2 2 1 2 2 2 2 2 2 2 2 2 2 2 2 2 2 2 2
left_child=1 4 6 8 12 15 7 26 14 11 17 31 20 19 28 25 53 34 37 40 21 39 32 -7 33 51 27 44 -3 49 -8 56 48 36 43 60 -13 -14 -22 50 -12 -18 -30 -6 -2 -32 -19 -39 -9 -16 -1 -4 -53 -17 -15 -24 -5 -26 -42 -31 -27 -25
right_child=2 3 5 9 10 23 30 22 -10 -11 13 24 18 54 29 16 41 46 -20 -21 38 -23 55 61 57 35 -28 -29 42 59 45 -33 -34 -35 -36 -37 -38 47 -40 -41 58 -43 -44 -45 -46 -47 -48 -49 -50 -51 -52 52 -54 -55 -56 -57 -58 -59 -60 -61 -62 -63
leaf_value=-0.018901659164938415 0.035081502115811972 -0.0025439765957471264 0.12007343059494383 0.024138224499810276 -0.010994125364756833 0.082328733251146646 -0.0061459607927772768 0.052248731263292339 -0.0095869830560929917 -0.0046646059463120683 0.002994862952201572 0.01457302386313878 -0.0079897659316713592 -0.0028838648079212623 0.025642360542283166 0.054447942493608653 0.05080475091934205 -0.013106635611918519 -0.020734164796765712 0.061575096544372487 -0.021693839925108246 -0.024011054914173189 0.082493482233148147 0.12879985149484127 0.0043715594071113782 0.086581477315519906 0.024824995025995115 0.09597723003890779 0.0019363492128790585 0.029501688596434317 0.0032499084811981604 0.071611095910124919 0.035489480617099708 0.040102008171379572 4.2100839002899823e-05 0.1346003091494952 0.02546217597777424 0.015589978427997418 -0.030242232572832591 -0.0066775136915937757 0.026122846945469104 0.10499786024815159 0.0077485180592064377 -0.0060384177616425233 0.051068962709460819 0.028099221786254416 -0.020089728823210164 -0.0016080329705224713 0.069000026527567801 0.0094742969240252991 -0.011213454213684717 0.034804022356867796 0.080210187472530989 0.018018271331675353 -0.01181697059764341 0.059559978428753282 0.044755095171968684 0.019790660972432039 0.0036064987769487689 0.068108669753585538 0.10346299429691518 0.16043006888890671
leaf_weight=1599 488 2295 21 157 3806 23 107 384 2221 652 1095 1845 697 875 219 119 20 3698 644 49 3224 1414 212 47 775 168 525 36 3545 65 105 68 162 144 1052 56 713 241 971 902 182 95 2379 3735 288 363 1162 363 249 585 1238 25 182 38 946 102 185 188 106 35 404 118
leaf_count=1599 488 2295 21 157 3806 23 107 384 2221 652 1095 1845 697 875 219 119 20 3698 644 49 3224 1414 212 47 775 168 525 36 3545 65 105 68 162 144 1052 56 713 241 971 902 182 95 2379 3735 288 363 1162 363 249 585 1238 25 182 38 946 102 185 188 106 35 404 118
internal_value=1.61316e-06 -0.00572148 0.0581563 0.0053154 -0.0120565 0.0964324 0.0414826 0.0470653 0.00119897 0.0151941 -0.00828651 0.0183715 -0.0176335 -0.000697521 0.00382481 0.0886765 0.0667459 -0.0101216 -0.00809676 0.00798408 -0.0196178 -0.0163169 0.0600158 0.142968 0.0157619 0.0956452 0.0363233 0.0429231 0.00236455 0.0171013 0.0177341 0.0403308 0.0540803 0.018807 -0.00748898 0.101723 0.0176082 -0.0018412 -0.0236725 -0.0134071 0.00608534 0.095573 0.00426324 -0.0085396 0.041015 0.0231939 -0.0147763 0.00525409 0.0588381 0.0138783 -0.0155467 0.0789031 0.0747264 0.0456306 -0.00752457 0.0750437 0.0352906 0.00738173 0.0178356 0.0430141 0.0985048 0.15142
internal_weight=48407 44070 4337 16071 27999 1316 3021 2446 11344 4727 16706 4075 11293 3253 9123 1128 272 13453 1945 1432 9348 5153 1109 188 3665 856 1337 812 8219 904 575 410 795 2702 8593 628 2558 1301 4195 3739 1383 115 5924 7541 776 468 4860 604 633 804 2837 228 207 157 1821 314 342 963 288 100 572 165
internal_count=48407 44070 4337 16071 27999 1316 3021 2446 11344 4727 16706 4075 11293 3253 9123 1128 272 13453 1945 1432 9348 5153 1109 188 3665 856 1337 812 8219 904 575 410 795 2702 8593 628 2558 1301 4195 3739 1383 115 5924 7541 776 468 4860 604 633 804 2837 228 207 157 1821 314 342 963 288 100 572 165
cat_boundaries=0 1 2 3 4
cat_threshold=1 15 96 519
is_linear=0
shrinkage=0.05


Tree=11
num_leaves=63
num_cat=6
split_feature=0 0 0 4 1 1 0 0 4 1 4 0 0 4 8 4 8 1 5 7 8 5 1 3 10 8 10 1 8 8 0 10 8 5 0 8 1 7 5 8 7 11 3 1 1 7 4 10 8 1 6 8 5 0 5 8 0 4 9 4 3 6
split_gain=5821.29 1149.19 1001.4 213.63 215.159 187.187 173.831 172.47 154.176 116.594 87.117 85.6492 83.701 70.281 67.3413 48.464 46.1092 41.0888 37.5676 36.7045 36.3363 36.7593 35.7108 34.0606 33.7965 34.9444 31.0387 30.8062 28.2634 26.6716 26.5711 25.7573 35.2633 25.3852 24.097 26.9884 23.3759 21.888 20.8441 20.837 20.5391 20.2966 19.4902 18.9674 18.8706 19.8773 18.6484 18.2685 17.668 16.298 16.2419 16.1542 17.6271 16.1258 15.8663 15.3406 15.3014 14.392 14.1426 13.9562 13.0754 13.0012
threshold=1.8929312893750001 3.5867811587500005 0.89092764609375019 12.925000000000002 1.3730073042187503 0.63176085390625014 2.6270687868750007 4.8642936706250017 11.655000000000003 1.2614050331250002 12.245000000000003 1.2065943359375002 0.39788749687500002 10.365 132.96299743652347 8.6450000000000014 243.77700042724612 3.9897813412500001 8.8950000000000014 5.3166666666666673 115.76449966430665 8.1050000000000022 2.9455812075000005 8.2550000000000008 0 198.77099609375003 1 2.8077125550000006 89.702999114990249 136.07599639892581 0.42306251499999997 2 83.980998992919936 7.4350000000000014 0.0082875000000000015 44.130500793457038 4.2307376100000003 4.3500000000000014 6.1850000000000014 115.44499969482423 4.450000000000002 3 9.2250000000000032 4.507887573125001 2.6261187743750005 9.7500000000000018 10.405000000000003 4 56.087999343872077 1.8276374818750003 94.500000000000014 50.07299995422364 11.185 5.4667623900000004 7.4150000000000009 27.779999732971195 3.0910563662500006 9.8950000000000014 5 6.0050000000000008 7.0150000000000006 1.0000000180025095e-35
decision_type=2 2 2 2 2 2 2 2 2 2 2 2 2 2 2 2 2 2 2 2 2 2 2 2 1 2 1 2 2 2 2 1 2 2 2 2 2 2 2 2 2 1 2 2 2 2 2 1 2 2 2 2 2 2 2 2 2 2 1 2 2 2
left_child=2 6 5 4 11 12 13 15 9 34 22 40 26 24 18 44 29 38 41 -10 -11 61 33 47 25 39 50 -16 -15 -9 -21 -13 59 56 -7 -36 -18 -5 -17 -2 48 49 -28 -30 45 -3 -34 58 -4 -6 -1 -39 -53 -38 -42 -49 -8 -31 -14 -33 -24 -22
right_child=1 7 3 37 14 8 10 16 19 20 -12 31 23 28 27 17 36 -19 -20 30 21 -23 60 -25 -26 -27 42 -29 43 57 -32 32 46 -35 35 -37 53 51 -40 -41 54 -43 -44 -45 -46 -47 -48 55 -50 -51 -52 52 -54 -55 -56 -57 -58 -59 -60 -61 -62 -63
leaf_value=-0.020769304613400211 0.034433748889563569 0.096491819404597792 0.0028143812950731156 -0.00096365422176115153 0.018887516786644062 -0.018204908712459535 0.04963629468220461 0.048445750952565245 -0.0068898264700382574 0.0084392979408752546 0.021963946133304688 0.0032313332099614435 -0.018785012164321067 0.0017292745394839181 0.028277073688109847 0.07254952471298369 0.096428685322884594 0.087017334027374105 0.0030350234223376245 -0.021679435787790927 0.028039652838682136 0.010037810968137101 0.078368807824785419 -0.0174816545077239 0.024138880919801278 0.098148873779508816 -0.014666249301700074 0.063603242137038191 0.019371962079066392 0.11634864225860471 -0.013519621281294053 0.015983494973370229 0.033921943759574122 0.033715006354966284 -0.0067076832047395507 0.00088792923140228327 0.12294569279326768 -0.014987420676895027 0.042242535338988779 0.050680841015759627 0.00022634083530962196 0.012689653790498022 -0.022812669645730647 0.047826327778624771 0.096048835669941421 0.061823151861824611 0.0098419411469186698 -0.012290207616101107 0.016963692078846977 0.030723711843884307 -0.03041350629133048 -0.0013780879477729756 -0.013386783383031045 0.15494708413476344 -0.0058566476381508937 -0.0052695678969514543 0.065550025154174449 0.078164898532052204 -0.0092027578977733338 0.0071393980223486281 0.056581979555302697 0.072144684994762606
leaf_weight=695 540 70 1523 792 738 371 384 21 1233 810 211 1135 991 225 144 92 31 153 440 1636 24 76 212 2794 579 27 1746 108 520 121 2557 651 262 162 5646 1475 61 1101 148 311 4327 860 1267 66 376 101 116 1352 258 480 1174 694 546 111 1425 1833 249 31 751 1417 102 55
leaf_count=695 540 70 1523 792 738 371 384 21 1233 810 211 1135 991 225 144 92 31 153 440 1636 24 76 212 2794 579 27 1746 108 520 121 2557 651 262 162 5646 1475 61 1101 148 311 4327 860 1267 66 376 101 116 1352 258 480 1174 694 546 111 1425 1833 249 31 751 1417 102 55
internal_value=2.08645e-06 0.0516449 -0.0058195 0.00364461 0.00630584 -0.0119001 0.0369863 0.0916108 -0.00789517 -0.00367462 0.0514122 0.00319844 -0.0163118 0.0285903 0.0187736 0.0801628 0.120231 0.0667687 0.0163073 -0.0144733 0.0126835 0.0348631 0.057015 -0.0130717 0.035157 0.0416734 -0.0214361 0.0434169 0.0167929 0.101264 -0.0167034 0.00956461 0.0124393 0.0513763 -0.00578162 -0.00513437 0.136395 -0.00814872 0.0538602 0.0403713 0.000172121 0.0191176 -0.0180321 0.0225767 0.089786 0.076015 0.0265323 -0.0105708 0.00486408 0.0233602 -0.0266845 -0.0105796 -0.00666579 0.143598 -0.00128066 -0.00822394 0.0558962 0.108561 -0.0147301 0.00992349 0.0712916 0.0587457
internal_weight=48407 4904 43503 17017 13884 26486 3588 1316 13883 8457 1320 11114 12603 2268 2770 940 376 393 2518 5426 965 155 1109 7721 1457 878 4882 252 811 173 4193 3581 2446 795 7492 7121 203 3133 240 851 7533 2078 3013 586 547 171 378 4927 1781 1218 1869 2341 1240 172 5752 3185 633 152 1742 2068 314 79
internal_count=48407 4904 43503 17017 13884 26486 3588 1316 13883 8457 1320 11114 12603 2268 2770 940 376 393 2518 5426 965 155 1109 7721 1457 878 4882 252 811 173 4193 3581 2446 795 7492 7121 203 3133 240 851 7533 2078 3013 586 547 171 378 4927 1781 1218 1869 2341 1240 172 5752 3185 633 152 1742 2068 314 79
cat_boundaries=0 1 2 3 4 5 6
cat_threshold=15 96 96 3380 96 262016
is_linear=0
shrinkage=0.05


Tree=12
num_leaves=63
num_cat=8
split_feature=0 0 0 0 0 0 3 0 3 8 5 8 4 1 3 1 4 4 1 10 7 10 8 8 1 10 10 8 10 1 10 1 1 11 4 3 4 4 4 1 7 8 6 8 11 7 0 1 4 0 5 1 1 5 8 8 5 8 4 6 0 8
split_gain=5259.46 1234.39 641.67 310.73 195.39 123.089 114.818 108.83 101.286 108.195 87.2737 101.065 72.1861 63.0344 62.8493 62.6085 57.2657 47.0625 43.5523 42.6102 42.8619 38.941 44.7401 37.2146 32.0223 31.1485 31.0314 30.1129 29.8446 27.6771 27.4925 26.9221 26.8341 25.9022 24.0322 23.4968 21.7149 21.4326 21.3546 20.1119 19.7641 18.4532 18.182 18.0774 17.9255 17.7149 17.6091 17.5405 17.3995 17.0239 16.5427 15.0105 14.8671 14.5012 14.3186 13.6969 13.3255 13.2803 13.2171 13.4452 13.0302 12.829
threshold=2.3060749818750002 1.0812782962500003 3.9897813412500001 0.64136005484375014 1.6512313081250001 3.0910563662500006 10.015000000000002 5.4667623900000004 10.475000000000003 56.087999343872077 9.7650000000000023 53.850999832153327 9.5050000000000008 0.50039375312500012 7.9250000000000007 2.7345874018750007 10.735000000000001 13.045000000000002 0.92580001812500001 0 17.816666666666674 1 115.44499969482423 92.000000000000014 3.7782250981250001 2 3 74.164501190185561 4 2.6261187743750005 5 3.5867811587500005 3.5867811587500005 6 8.4050000000000029 8.1450000000000014 5.3550000000000013 13.225000000000003 9.5550000000000015 0.88165471375000004 5.5166666666666666 260.9930038452149 0.50000000000000011 189.29050445556643 7 4.6500000000000012 0.14770628875000005 0.90510392484375002 7.2950000000000008 0.80965621937499999 10.985000000000001 1.7035375212500001 1.3305172660937503 7.205000000000001 198.77099609375003 60.388999938964851 7.035000000000001 175.4620056152344 12.985000000000001 525.83333333333337 0.20491250062500002 187.7289962768555
decision_type=2 2 2 2 2 2 2 2 2 2 2 2 2 2 2 2 2 2 2 1 2 1 2 2 2 1 1 2 1 2 1 2 2 1 2 2 2 2 2 2 2 2 2 2 1 2 2 2 2 2 2 2 2 2 2 2 2 2 2 2 2 2
left_child=1 3 5 10 6 14 15 17 9 18 11 13 21 30 32 26 25 29 38 20 44 22 -6 -16 -9 -7 42 48 34 36 46 37 51 -12 -13 47 -4 -14 49 -10 -29 -31 -3 -19 -11 -21 -1 -15 -28 -5 55 -2 -38 -20 -34 -8 -27 -17 59 61 -35 -25
right_child=2 4 7 8 12 16 50 24 39 19 33 28 31 35 23 57 -18 43 53 45 -22 -23 -24 58 -26 56 27 40 -30 41 -32 -33 54 60 -36 -37 52 -39 -40 -41 -42 -43 -44 -45 -46 -47 -48 -49 -50 -51 -52 -53 -54 -55 -56 -57 -58 -59 -60 -61 -62 -63
leaf_value=-0.028782318738964287 0.035597393898270824 0.010088331221317018 0.1047715795536836 -0.0076959241791172209 0.028372650737827305 0.079818970862091818 -0.007866140053302063 0.082751433172773933 -0.017466270265732907 0.0077761469877840501 -0.014690767097582753 0.035444793446056014 0.014391502239631222 -0.0096001967314038213 0.00024486373548561171 0.031866767150602597 0.037633305363795867 0.013699015038302884 0.0024133368991084026 0.013608738164753853 0.078725035985310887 0.017688870420831674 0.053387599051173809 0.035542358396696332 0.1383603815962175 0.056841750516033421 0.0080211613587942467 0.022461897880008481 -0.0023671884342973577 0.0920568059176715 -0.014298293506364064 0.034869201855491042 0.060627218834789734 -0.027365577702426331 0.0056834081893104545 -0.014048076109300207 0.023261607688089665 0.00027748457405633837 -0.0099977433584578813 -0.0092843107225260429 0.0091206389801806835 0.11908130761082858 0.026241509946088277 0.0675229470890302 0.026665118403249873 -0.0015815995479735727 -0.019018924705829766 -0.0017203040722133627 0.0018980674527590211 -0.0025618724248850644 -0.013566038742347325 0.048784267025034606 0.069268786072484809 -0.0040636413836440651 0.10904018825718337 0.0039865325429552971 0.033709018245730325 0.06699316584888626 0.018471422958711205 -0.00035230720585042785 -0.020459402790621351 0.065010437775741933
leaf_weight=687 382 354 36 2822 757 382 561 31 1401 289 1435 112 782 2703 124 129 208 26 2395 272 30 728 234 230 157 269 2184 412 648 469 2928 115 56 1237 172 2235 22 410 2758 1619 851 73 343 39 260 652 1409 956 2475 3774 544 496 87 1352 21 431 81 34 137 22 1525 44
leaf_count=687 382 354 36 2822 757 382 561 31 1401 289 1435 112 782 2703 124 129 208 26 2395 272 30 728 234 230 157 269 2184 412 648 469 2928 115 56 1237 172 2235 22 410 2758 1619 851 73 343 39 260 652 1409 956 2475 3774 544 496 87 1352 21 431 81 34 137 22 1525 44
internal_value=2.10682e-06 -0.00452203 0.0600416 -0.00932791 0.00974268 0.0465768 0.0057848 0.0951648 -0.00474461 -0.00302092 -0.0143616 -0.0121672 0.0206223 -0.0135163 0.0377438 0.00858045 0.0607847 0.0866583 -0.00447861 0.00968515 0.0201806 0.0273561 0.0339369 0.0243957 0.129191 0.0673632 0.00782656 0.0066136 0.00363707 0.0905058 -0.0176313 0.0117658 0.045529 -0.0205575 0.0168278 -0.0100087 0.0711029 0.00953685 -0.00630321 -0.01308 0.0134727 0.0956966 0.0177823 0.0459934 0.0173491 0.00285907 -0.0221135 -0.00754139 0.00476839 -0.0047584 -0.00655901 0.0430469 0.0599829 7.63007e-05 0.0738308 -0.00271644 0.0500579 0.0391937 0.0313119 0.0372549 -0.0234675 0.0402745
internal_weight=48407 45015 3392 33671 11344 2452 8318 940 17624 14604 16047 11850 3026 10918 1512 6782 940 752 13101 1503 579 1719 991 557 188 732 6619 5922 932 687 5024 1307 955 4197 284 5894 145 1192 9354 3020 1263 542 697 65 549 924 2096 3659 4659 6596 1536 878 109 3747 77 992 350 163 433 296 2762 274
internal_count=48407 45015 3392 33671 11344 2452 8318 940 17624 14604 16047 11850 3026 10918 1512 6782 940 752 13101 1503 579 1719 991 557 188 732 6619 5922 932 687 5024 1307 955 4197 284 5894 145 1192 9354 3020 1263 542 697 65 549 924 2096 3659 4659 6596 1536 878 109 3747 77 992 350 163 433 296 2762 274
cat_boundaries=0 1 2 3 4 5 6 7 8
cat_threshold=3 15 15 1 1 96 1027 2816
is_linear=0
shrinkage=0.05


Tree=13
num_leaves=63
num_cat=8
split_feature=0 0 0 0 1 0 0 4 5 4 1 4 0 1 4 10 4 8 1 0 10 10 8 4 8 10 8 4 8 1 5 4 8 4 8 0 10 7 10 1 8 8 8 5 5 7 0 8 1 7 10 7 7 8 8 6 8 5 4 0 2 9
split_gain=4752.92 937.553 819.398 192.721 144.612 141.814 140.736 126.79 98.1375 92.7681 90.9851 72.473 62.827 60.28 58.105 53.8516 40.9902 38.729 35.545 34.9554 32.9458 32.3821 31.6169 31.0534 38.8557 29.7986 45.2552 29.7669 27.4299 25.5163 26.3642 23.8593 23.311 23.2107 22.9438 22.6415 22.6399 22.4198 21.8115 21.0487 18.6622 18.2445 18.1141 17.5676 16.9673 16.713 16.5636 16.3893 15.9176 18.0917 14.9308 14.8599 14.8005 14.6511 14.4347 14.1739 14.7699 13.7591 13.6224 13.1056 13.5201 12.957
threshold=1.8929312893750001 3.5867811587500005 0.86626876875000014 1.2660499956250002 0.61490276625000007 2.6270687868750007 4.8642936706250017 13.045000000000002 8.1850000000000005 12.925000000000002 1.2614050331250002 12.245000000000003 0.30382500625000003 1.8276374818750003 12.465000000000002 0 8.6450000000000014 136.07599639892581 3.9897813412500001 5.4667623900000004 1 2 198.77099609375003 8.4450000000000021 115.76449966430665 3 88.318500518798842 9.8450000000000006 56.087999343872077 3.2404687500000002 7.9250000000000007 9.1750000000000025 175.4620056152344 14.015000000000002 44.130500793457038 0.42972499875000009 4 18.283333333333339 5 2.3671375275000002 80.328498840332045 113.80200195312501 115.76449966430665 6.1850000000000014 8.1450000000000014 3.8666666666666667 3.0910563662500006 89.702999114990249 2.5318062593750006 9.7500000000000018 6 6.7500000000000009 4.3500000000000014 54.581998825073249 198.77099609375003 438.83333333333343 127.15900039672853 8.4750000000000032 4.0050000000000008 0.0082875000000000015 0.59655963664062506 7
decision_type=2 2 2 2 2 2 2 2 2 2 2 2 2 2 2 1 2 2 2 2 1 1 2 2 2 1 2 2 2 2 2 2 2 2 2 2 1 2 1 2 2 2 2 2 2 2 2 2 2 2 1 2 2 2 2 2 2 2 2 2 2 1
left_child=2 5 4 9 12 14 16 10 15 13 31 20 36 28 21 39 48 -8 43 -19 29 22 41 24 -12 -17 -27 50 38 30 46 34 -28 42 -6 -9 -1 -15 -4 -5 -23 58 -10 -18 -26 -30 -7 -16 49 -3 61 -33 -11 -52 -31 56 -22 -38 -2 -36 -61 -14
right_child=1 6 3 8 7 11 17 35 33 52 23 -13 27 37 47 25 18 19 -20 -21 55 40 -24 -25 44 26 32 -29 45 54 -32 51 -34 -35 59 -37 57 -39 -40 -41 -42 -43 -44 -45 -46 -47 -48 -49 -50 -51 53 -53 -54 -55 -56 -57 -58 -59 -60 60 -62 -63
leaf_value=-0.025786333890361009 0.052435174391915397 0.088395920897164623 -0.0042126346525945138 0.027348959512909929 -0.0056985596247947174 0.05229298043356561 0.042640846258118037 -0.019951755969356371 0.0012638479991025947 -0.0028492946430684171 0.012291128454528642 0.019597161822716189 -0.017702187856798994 0.018763767609202536 -0.0040519813390384463 0.0053181682732037442 0.065257678877400319 0.096698886156082159 0.078939308671682487 0.12807930158347142 0.02245782709680498 0.0084765664403760165 0.085740762423066538 0.002368988054358864 0.068221109139495625 0.011872996058168828 0.025026675851446651 -0.016103976981160756 0.017523711875640724 0.069470102520038685 0.027283759474650855 -0.0043774128837179415 0.068217356638474905 -0.0085075359543431445 -0.025506661531443781 -0.012073422276298002 -0.01370246267347641 0.073287460803985599 0.0013516351921346401 0.057035292105825801 0.026438803563796187 0.046570837345312949 0.018655985342505909 0.037434484549905049 0.018590412514570814 0.0042483265558665604 0.074303332765897109 0.016345023449319977 0.086710256593814247 0.053930407679302898 -0.0083740827131433219 -0.011510808198420557 -0.011843501137478514 0.018652873364757683 0.10303375124044362 0.01248454933675627 0.046167969323088205 -0.021792322158612456 0.026856718998421316 0.012359963003879971 -0.00031861193183131009 -0.0083886914503502677
leaf_weight=1407 60 64 2471 328 3983 233 21 1528 866 618 356 211 990 329 145 1051 92 176 153 179 80 173 34 733 51 2016 586 3640 322 135 72 1035 33 538 39 2262 1235 20 6061 73 881 275 181 148 26 899 135 307 389 94 2986 2478 1760 51 42 45 367 915 393 322 606 708
leaf_count=1407 60 64 2471 328 3983 233 21 1528 866 618 356 211 990 329 145 1051 92 176 153 179 80 173 34 733 51 2016 586 3640 322 135 72 1035 33 538 39 2262 1235 20 6061 73 881 275 181 148 26 899 135 307 389 94 2986 2478 1760 51 42 45 367 915 393 322 606 708
internal_value=3.0405e-06 0.0466669 -0.00525728 0.00285221 -0.0110639 0.0334267 0.0827656 -0.00750289 0.0104943 -0.000621016 -0.00445373 0.0464565 -0.0150687 0.00147051 0.0258432 0.01459 0.0724243 0.108619 0.0601062 0.112522 0.0515668 0.0298359 0.0381127 0.00864043 0.019257 0.0125799 0.0154453 -0.0127042 0.000739886 0.0604235 0.0549537 -0.00625779 0.0273292 -6.67689e-05 -0.00402127 -0.0152497 -0.0206359 0.0218883 -0.000263217 0.0319563 0.0232698 0.0364118 0.00427051 0.0481 0.0514627 0.00774929 0.0603674 0.00980174 0.0812744 0.0678911 -0.0100906 -0.00940917 -0.00950607 -0.00789423 0.0774344 0.0384503 0.0419245 -0.017066 0.0302446 0.00288735 0.00408063 -0.0138907
internal_weight=48407 4904 43503 18152 25351 3588 1316 13419 5672 12480 9629 1320 11932 10102 2268 4087 940 376 393 355 1109 1816 762 1166 433 3686 2635 8375 9753 617 440 8463 619 1585 4950 3790 3557 349 8532 401 1054 728 1047 240 77 1221 368 452 547 158 4735 3513 2378 3037 177 492 447 2150 453 967 928 1698
internal_count=48407 4904 43503 18152 25351 3588 1316 13419 5672 12480 9629 1320 11932 10102 2268 4087 940 376 393 355 1109 1816 762 1166 433 3686 2635 8375 9753 617 440 8463 619 1585 4950 3790 3557 349 8532 401 1054 728 1047 240 77 1221 368 452 547 158 4735 3513 2378 3037 177 492 447 2150 453 967 928 1698
cat_boundaries=0 1 2 3 4 5 6 7 8
cat_threshold=1 15 11 96 96 96 96 131008
is_linear=0
shrinkage=0.05


Tree=14
num_leaves=63
num_cat=10
split_feature=0 0 0 0 3 1 8 3 1 4 8 1 0 0 4 8 1 4 1 0 8 10 4 8 0 10 8 1 10 8 10 1 10 9 4 1 6 4 9 8 1 8 4 7 8 9 8 3 4 7 11 7 3 0 8 4 10 2 4 7 3 7
split_gain=4291.84 860.111 693.599 201.73 157.323 156.96 127.643 103.933 82.4053 79.416 107.918 62.3584 62.2884 55.4064 51.0868 50.2342 43.9676 42.6539 42.3343 39.9244 39.6453 34.5156 33.37 32.8167 36.9561 30.2617 33.2442 28.6841 27.7917 29.3238 26.5442 20.7198 20.378 19.9004 19.1969 18.9674 18.3979 18.3778 18.3521 17.8764 17.5983 17.4969 16.7921 16.4854 16.3588 15.9675 14.9079 14.681 14.3394 14.061 13.9875 13.9085 13.4472 13.4144 13.056 12.9447 12.8578 12.549 15.0883 11.9145 11.8192 11.6177
threshold=2.0599250031250005 0.9869187543750001 3.5867811587500005 0.50304376562500008 9.9650000000000016 1.5271434556250001 243.77700042724612 7.8150000000000004 3.7782250981250001 13.165000000000001 56.087999343872077 0.98935011890625024 2.6270687868750007 1.2660499956250002 12.345000000000001 93.636501312255874 2.7345874018750007 14.175000000000002 0.88165471375000004 0.0082875000000000015 132.96299743652347 0 11.655000000000003 45.548498153686531 4.507887573125001 1 83.038997650146499 3.2404687500000002 2 184.33899688720706 3 1.6240811918750002 4 5 6.2350000000000012 2.156696063125001 329.16666666666669 7.6550000000000011 6 70.097000122070327 5.4667623900000004 189.29050445556643 8.8350000000000026 5.1500000000000012 88.318500518798842 7 226.55750274658206 6.2350000000000012 8.8350000000000026 6.8166666666666673 8 15.183333333333334 7.4750000000000005 0.78505001125000007 132.96299743652347 9.2650000000000023 9 1.8102937665885419 10.405000000000003 3.3166666666666669 11.685 13.983333333333336
decision_type=2 2 2 2 2 2 2 2 2 2 2 2 2 2 2 2 2 2 2 2 2 1 2 2 2 1 2 2 1 2 1 2 1 1 2 2 2 2 1 2 2 2 2 2 2 1 2 2 2 2 1 2 2 2 2 2 1 2 2 2 2 2
left_child=1 3 7 11 5 13 14 12 -8 10 18 19 31 52 23 -9 30 44 32 56 34 47 39 -4 37 -15 -27 36 -17 -30 38 -2 33 -5 -7 49 -14 -25 -12 45 -10 -16 -40 -11 -13 -21 -26 -22 -46 -6 -36 -18 54 -34 -3 -20 -1 58 -28 -44 -37 -24
right_child=2 4 6 9 35 20 8 15 40 43 16 17 27 25 41 28 51 -19 55 22 21 -23 61 24 46 26 57 -29 29 -31 -32 -33 53 -35 50 60 -38 -39 42 -41 -42 -43 59 -45 48 -47 -48 -49 -50 -51 -52 -53 -54 -55 -56 -57 -58 -59 -60 -61 -62 -63
leaf_value=-0.01571099349390764 0.024141968986829868 0.0037222977695733303 0.026713381870649755 -0.014936098654135322 -0.0030957768790883804 0.026018099734061707 0.038639202780489414 0.0032511358706187824 0.11190889244958474 -0.0074439836212833845 0.0041402058965004573 -0.003388189998881427 0.050975878000117963 0.0034748131943206926 0.015945233015550508 0.0061183251866339487 0.031732518625155581 -0.017367921120660636 0.0011299626051665516 -0.0070735317239439257 0.03849454596393595 0.055122742509431125 -0.017145322055049431 0.076859086085931061 0.098298072536856351 0.010608598374098973 0.039561114079042822 0.070350544395560988 0.027485544441944204 0.052184875254737001 -0.0022484777636775847 0.039734875519937631 -0.0077210440660699072 -0.0069296353957610385 0.01887933259970024 0.013974848362947039 0.029560679838389416 0.059203433993557264 0.033019001270575381 0.0040076799873757915 0.14235920651870615 0.054917326841969039 0.040749260494785923 -0.014646407121448058 0.026701071418052461 -0.014126753192987646 0.070941971236696613 -0.00062720754756950424 0.00064811693774836682 -0.011002199931961287 0.0081262296042998814 0.077359424596247464 -0.0015421602062822349 -0.0032242756439285606 0.044228597283363341 -0.0046824896326152915 -0.02544942974062013 0.015883556373703939 0.014290440407404232 0.0073903896438720536 -0.0067009332007728524 -0.025575062409339728
leaf_weight=659 385 3726 34 1526 1184 548 35 256 157 1128 354 1031 586 1115 45 139 61 561 2261 1152 38 136 2543 377 213 1895 199 167 547 154 491 477 4068 1713 889 192 121 242 162 173 68 80 31 2687 92 3354 65 65 124 1071 539 23 1596 2800 20 1662 1307 208 84 196 108 487
leaf_count=659 385 3726 34 1526 1184 548 35 256 157 1128 354 1031 586 1115 45 139 61 561 2261 1152 38 136 2543 377 213 1895 199 167 547 154 491 477 4068 1713 889 192 121 242 162 173 68 80 31 2687 92 3354 65 65 124 1071 539 23 1596 2800 20 1662 1307 208 84 196 108 487
internal_value=2.37801e-06 -0.00455543 0.048634 -0.00920097 0.00590276 0.00848648 0.0786273 0.0346965 0.11001 -0.00606072 -0.00445595 -0.0144415 0.0423073 0.00550513 0.0709006 0.0226414 0.00922331 -0.00591801 -0.005741 -0.0160343 0.020389 0.0396232 -0.0144123 0.0749303 0.0767579 0.010394 0.013556 0.0517131 0.0285508 0.0324488 0.00684066 0.0327705 -0.00745214 -0.0107361 0.0180626 -0.00527956 0.0473108 0.0699566 0.0127063 -0.011765 0.121112 0.0408874 0.0202026 -0.0125168 -0.000766928 -0.0123706 0.0919019 0.0125843 0.0117447 -0.00685089 0.0150097 0.0442256 0.00230112 -0.00587921 0.00393856 -0.00133251 -0.0223945 0.0252074 0.0320603 0.011946 0.00653157 -0.0185002
internal_weight=48407 44259 4148 30646 13613 11058 1316 2832 260 19163 15348 11483 1736 8843 1056 1096 1318 1808 14030 9675 2215 239 7709 931 897 3501 2386 874 840 701 1234 862 10107 3239 1976 2555 707 619 743 4679 225 125 389 3815 1247 4506 278 103 216 2255 1428 84 5342 6868 3746 3923 1966 491 283 227 300 3030
internal_count=48407 44259 4148 30646 13613 11058 1316 2832 260 19163 15348 11483 1736 8843 1056 1096 1318 1808 14030 9675 2215 239 7709 931 897 3501 2386 874 840 701 1234 862 10107 3239 1976 2555 707 619 743 4679 225 125 389 3815 1247 4506 278 103 216 2255 1428 84 5342 6868 3746 3923 1966 491 283 227 300 3030
cat_boundaries=0 1 2 3 4 5 6 7 8 9 10
cat_threshold=98 96 32 15 96 262016 14680127 16516033 3380 1
is_linear=0
shrinkage=0.05


Tree=15
num_leaves=63
num_cat=9
split_feature=0 0 0 0 0 5 8 3 5 4 6 4 1 8 10 7 0 8 1 10 8 0 4 1 8 0 1 10 8 10 8 8 4 8 7 8 3 1 1 0 1 8 4 10 8 9 5 10 1 7 1 8 2 5 8 10 8 9 5 5 8 4
split_gain=3880.38 764.344 669.927 170.02 164.543 119.462 120.363 93.7714 82.6976 80.7872 73.0986 59.0637 57.7623 53.5921 46.2985 44.9579 44.2133 42.1459 41.8508 34.1685 31.2174 31.0622 28.8147 28.1207 27.1448 26.545 26.3817 24.3099 37.8726 22.9013 22.6651 22.3536 20.7253 19.7036 19.6578 21.1505 19.568 19.5616 18.1315 18.0572 18.013 17.9075 17.5278 16.3669 16.3453 17.7963 15.6786 14.8673 14.6611 13.7616 13.4464 18.8419 18.4603 12.8656 12.5414 12.4128 12.3423 12.2018 12.1983 11.616 13.593 11.4674
threshold=1.8929312893750001 3.2414125056250005 0.84039375312500009 1.2660499956250002 4.507887573125001 8.5150000000000023 55.345499038696296 7.9250000000000007 8.1850000000000005 11.875000000000002 307.50000000000006 9.8450000000000006 1.3055873500000004 115.44499969482423 0 5.3166666666666673 5.4667623900000004 93.993999481201186 0.82293125125000011 1 49.763999938964851 0.29047499687500006 8.4050000000000029 1.7966874693750003 216.27349853515628 0.14770628875000005 2.7345874018750007 2 88.318500518798842 3 45.548498153686531 189.29050445556643 13.105000000000002 175.4620056152344 4.6500000000000012 83.980998992919936 10.865 3.9897813412500001 2.5318062593750006 3.9897813412500001 0.41976249687500006 127.15900039672853 10.215000000000002 4 27.345499992370609 5 10.205000000000002 6 2.3671375275000002 3.8666666666666667 3.4043251037500002 202.984001159668 1.7040562518229168 7.1750000000000007 156.04350280761722 7 67.252002716064467 8 7.2250000000000005 10.915000000000001 57.827499389648445 5.4850000000000012
decision_type=2 2 2 2 2 2 2 2 2 2 2 2 2 2 1 2 2 2 2 1 2 2 2 2 2 2 2 1 2 1 2 2 2 2 2 2 2 2 2 2 2 2 2 1 2 1 2 1 2 2 2 2 2 2 2 1 2 1 2 2 2 2
left_child=2 7 5 9 11 6 10 13 14 12 18 30 34 -2 41 20 32 -9 43 -8 -7 -17 38 -15 -18 47 61 -16 -29 -19 -3 46 48 -30 35 -4 54 53 -21 -32 -11 -5 -20 57 -45 -46 -31 -12 -6 -42 52 -52 -25 -13 -10 -27 -23 -1 -36 60 -51 -14
right_child=1 4 3 8 16 15 19 17 36 40 25 37 26 23 27 21 24 29 42 22 -22 56 -24 50 -26 55 -28 28 33 31 39 -33 -34 -35 58 -37 -38 -39 -40 -41 49 -43 -44 44 45 -47 -48 -49 -50 59 51 -53 -54 -55 -56 -57 -58 -59 -60 -61 -62 -63
leaf_value=-0.01602452908673864 0.02603984626679386 0.013339231362333521 0.0031446814314730837 0.025935800628028756 0.054491866317888105 -0.011965129914046239 -0.00043073207522614955 0.0036573292974510876 0.002550659948866055 -0.017419104232943856 -0.011634007593123032 0.046431702930849417 0.020126706184882555 0.032894028459636536 0.0048142066283826329 -0.021656710741266422 0.062699066713452337 0.0030497273187763217 0.0010210913311633118 0.024863446486914267 0.0024650259591616386 -0.015643908954384275 0.0068271452322692817 0.081894772070826904 0.1186527657551131 -0.017532387205671598 0.03968542751476721 0.010692994218433819 0.022715503621767771 0.027937085568113931 0.061865714528156736 0.048672012070835872 0.038445152012774576 0.062423913842014213 -2.7671337076402677e-06 0.025755289599401959 -0.0071600484200046131 0.060705118279387849 0.063268986758258608 0.078188376761825662 0.00010206770189618742 0.05713418710906551 -0.0068295561526775005 -0.010650164057906482 0.0043699235498353165 -0.0063475229917750843 0.0093749446225596372 -0.024641120190096375 0.088179577506817652 -0.0080990068570615994 0.054047150075590855 0.10132608215014141 0.04310244002405228 0.023602737378824852 0.023585276307792152 -0.009599460064082058 -0.0081670282936862938 -0.0086191899587704582 -0.0049008742624318249 -0.013240494596869424 0.002675076046924867 0.0072632703605824168
leaf_weight=1130 931 20 2023 348 36 1673 515 394 889 399 387 111 221 429 1051 2351 25 135 1981 210 483 3508 270 33 163 737 81 2016 586 481 513 103 26 33 5242 109 619 92 36 253 688 53 1109 1960 447 2716 149 835 314 1275 96 27 434 139 77 1911 655 1301 1678 718 380 802
leaf_count=1130 931 20 2023 348 36 1673 515 394 889 399 387 111 221 429 1051 2351 25 135 1981 210 483 3508 270 33 163 737 81 2016 586 481 513 103 26 33 5242 109 619 92 36 253 688 53 1109 1960 447 2716 149 835 314 1275 96 27 434 139 77 1911 655 1301 1678 718 380 802
internal_value=2.35608e-06 0.0421659 -0.00475065 0.00220156 0.0693633 -0.0102883 -0.00766555 0.027839 0.00947488 -0.000828281 -0.00883817 0.0583379 0.0014197 0.0347118 0.0132346 -0.0149908 0.0914141 0.0172195 -0.00669857 0.0088421 -0.0087324 -0.0170622 0.0177611 0.0426348 0.111212 -0.0147229 0.0122171 0.0113734 0.0139616 0.0233756 0.0658849 0.0267131 0.0815151 0.0248324 0.000102833 0.00430066 -0.000219853 0.0409929 0.0304838 0.0672569 -0.0074267 0.0293279 -0.0017965 -0.00870378 -0.00704863 -0.00483917 0.023547 -0.0208187 0.0847146 -0.00612419 0.0497175 0.0644255 0.0458437 0.0337388 0.00422733 -0.0119098 -0.0144675 -0.012113 -0.00119049 -0.00792936 -0.0056252 0.0100422
internal_weight=48407 4904 43503 19288 1692 24215 15545 3212 5672 13616 14514 1128 10156 1950 4087 8670 564 1262 10644 1031 2156 6514 516 1019 188 3870 1104 3686 2635 868 786 733 376 619 9052 2132 1585 342 246 766 3460 401 3090 7554 5123 3163 630 1222 350 3061 590 123 467 250 966 2648 4163 2431 6920 2373 1655 1023
internal_count=48407 4904 43503 19288 1692 24215 15545 3212 5672 13616 14514 1128 10156 1950 4087 8670 564 1262 10644 1031 2156 6514 516 1019 188 3870 1104 3686 2635 868 786 733 376 619 9052 2132 1585 342 246 766 3460 401 3090 7554 5123 3163 630 1222 350 3061 590 123 467 250 966 2648 4163 2431 6920 2373 1655 1023
cat_boundaries=0 1 2 3 4 5 6 7 8 9
cat_threshold=1 116 96 32 96 3933120 1 96 131008
is_linear=0
shrinkage=0.05


Tree=16
num_leaves=63
num_cat=15
split_feature=0 0 0 0 0 4 3 3 1 0 1 4 0 4 1 0 11 4 1 8 10 8 4 10 10 1 8 10 3 10 8 2 5 1 1 9 1 4 3 9 11 6 4 9 10 6 8 8 8 8 10 9 4 8 8 9 1 10 6 6 8 2
split_gain=3508.9 828.872 429.294 215.864 128.744 88.0606 81.2912 73.2779 75.4448 73.0721 68.8058 61.6976 57.3624 52.9076 47.2406 42.2586 41.3066 33.0415 32.4787 31.0236 29.9445 31.2175 27.2457 26.6799 25.8847 24.7695 24.4982 24.2186 22.0204 21.5816 20.7175 20.4372 19.952 20.65 19.0353 18.6565 18.3552 17.7507 17.6249 17.6065 17.2294 15.923 17.2376 15.7222 15.4442 14.9175 14.6787 14.338 14.2529 14.0198 13.8069 13.7178 13.505 14.6461 13.3977 13.1792 12.8832 12.6479 12.4075 11.9977 11.8504 11.2596
threshold=2.3060749818750002 1.0881519814062501 3.9897813412500001 0.66980635015625001 1.6512313081250001 9.8450000000000006 10.635000000000003 8.1050000000000022 1.2839487637500002 5.4667623900000004 0.77787502312500012 11.875000000000002 3.0910563662500006 9.5050000000000008 2.7345874018750007 0.020472326250000006 0 13.045000000000002 1.2738375093750005 115.76449966430665 1 115.44499969482423 8.3550000000000022 2 3 0.99463582062500011 216.27349853515628 4 12.575000000000001 5 70.52500152587892 2.2159059841927085 10.605000000000002 3.5867811587500005 2.6261187743750005 6 2.6261187743750005 5.3550000000000013 10.585000000000003 7 8 1.0000000180025095e-35 8.8850000000000033 9 10 425.16666666666669 189.29050445556643 132.96299743652347 58.074001312255866 260.9930038452149 11 12 15.355000000000002 48.699499130249031 117.94250106811525 13 1.3305172660937503 14 318.50000000000006 82.833333333333357 128.84049987792972 1.4188856633593752
decision_type=2 2 2 2 2 2 2 2 2 2 2 2 2 2 2 2 1 2 2 2 1 2 2 1 1 2 2 1 2 1 2 2 2 2 2 1 2 2 2 1 1 2 2 1 1 2 2 2 2 2 1 1 2 2 2 1 2 1 2 2 2 2
left_child=1 3 5 10 6 12 14 8 29 17 15 18 36 20 22 -1 -7 34 58 -10 21 -6 24 59 39 38 -11 45 30 35 43 -29 33 50 37 -5 -2 -4 -9 -3 -31 -21 -43 -25 -14 54 -19 -26 -24 -36 -15 -50 53 -13 -18 -27 -39 60 -12 -17 -20 -23
right_child=2 4 9 7 13 16 -8 25 19 26 11 52 44 32 -16 23 27 46 57 41 -22 61 48 28 47 55 -28 31 -30 40 -32 -33 -34 -35 49 -37 -38 56 -40 -41 -42 42 -44 -45 -46 -47 -48 -49 51 -51 -52 -53 -54 -55 -56 -57 -58 -59 -60 -61 -62 -63
leaf_value=-0.020563501100101134 0.032976557528617612 0.0026820333262887672 0.088373442377067291 -0.002148386636462286 0.023792424060341173 0.0067470141841719554 -0.0073997844086473603 -0.0074179164231964372 0.010649991958201294 0.059564113669097418 -0.0028151514803849555 -0.013112692974680807 0.041708823078004768 0.015624952250366177 0.032244688701322223 -0.013530861583339141 0.0064117133941339419 0.0076260897187659374 0.011164730614015588 0.010919551178812981 0.014290291206359655 0.068842098191380499 0.00031563565150380456 -0.0034200881697799865 0.0072316730278626819 -0.0088109141582851918 0.11272012591362 0.022875521754758668 -0.018513445155168898 0.00065805664046221762 0.0066737214258812865 0.055796067632589097 -0.0028436752477458468 0.035369217666900821 0.07515598673667355 0.010690712759077375 0.048765618952596568 0.013695210015231912 -0.014020710315337187 0.027269078198920407 -0.004388431725673457 0.075027628029446791 0.018408052076119931 -0.011089348858931791 0.066297283712682439 -0.0083114108030817348 0.056127242610240595 0.037355427375296131 0.00049557930369315158 0.098711544928485398 0.0032713055378764929 0.011728707447204289 -0.016976103896686596 -0.0019799093146539979 0.031175932919834067 -0.00071410788745232686 0.056522917550528184 0.00063534058494796146 -0.01228128097416456 -0.01963434043040398 0.035609962977287073 0.039707533453984825
leaf_weight=1888 698 111 36 557 757 248 1161 2596 647 25 1969 895 303 526 179 1863 69 26 220 28 728 40 2025 814 3168 756 163 64 755 2330 193 179 267 90 469 564 250 22 1655 303 6185 41 20 4735 344 35 39 40 461 73 424 681 1070 441 262 1483 87 253 420 1418 64 194
leaf_count=1888 698 111 36 557 757 248 1161 2596 647 25 1969 895 303 526 179 1863 69 26 220 28 728 40 2025 814 3168 756 163 64 755 2330 193 179 267 90 469 564 250 22 1655 303 6185 41 20 4735 344 35 39 40 461 73 424 681 1070 441 262 1483 87 253 420 1418 64 194
internal_value=1.38513e-06 -0.00369392 0.0490416 -0.0075882 0.0081268 0.0380281 0.00484951 -0.00357989 -0.000972576 0.0777703 -0.0115644 -0.00685901 0.0449738 0.0169308 0.00689047 -0.0137151 0.0251014 0.0708 -0.00198182 0.0144573 0.0226958 0.0284394 0.00622198 -0.0123927 0.00918385 -0.00774677 0.105652 0.0319404 -0.0104698 -0.00215112 -0.00943035 0.045263 0.00934865 0.0124788 0.0740238 0.00434866 0.0371403 0.0579326 -0.00998852 0.0208956 -0.00300838 0.0421353 0.0564638 -0.00999047 0.0564515 0.0221266 0.0367268 0.00758364 0.00283458 0.0783286 0.0103102 0.00730119 -0.0127903 -0.00943787 0.0260136 -0.00349054 0.0478788 0.00912919 -0.00447935 -0.0161196 0.0161064 0.0446878
internal_weight=48407 45015 3392 33860 11155 2452 8129 16862 10372 940 16998 5332 1595 3026 6968 11666 857 752 2926 736 1719 991 6789 9778 3622 6490 188 609 6497 9636 5742 243 1307 1040 687 1121 948 145 4251 414 8515 89 61 5549 647 366 65 3208 3167 542 950 1142 2406 1336 331 2239 109 537 2389 3281 284 234
internal_count=48407 45015 3392 33860 11155 2452 8129 16862 10372 940 16998 5332 1595 3026 6968 11666 857 752 2926 736 1719 991 6789 9778 3622 6490 188 609 6497 9636 5742 243 1307 1040 687 1121 948 145 4251 414 8515 89 61 5549 647 366 65 3208 3167 542 950 1142 2406 1336 331 2239 109 537 2389 3281 284 234
cat_boundaries=0 1 2 3 4 5 6 7 8 9 10 11 12 13 14 15
cat_threshold=1543 15 96 1 116 1 12582975 8388671 3079 1835968 112 23 8486975 8417407 3
is_linear=0
shrinkage=0.05


Tree=17
num_leaves=63
num_cat=12
split_feature=0 0 0 5 8 3 1 4 0 0 1 7 0 9 8 10 0 9 3 8 10 1 10 8 10 10 8 4 1 0 1 5 4 9 10 8 8 5 8 1 8 10 8 8 10 9 7 4 0 1 1 6 4 8 4 0 4 8 4 6 8 7
split_gain=3168.93 623.315 552.583 124.598 129.248 120.088 107.228 98.9157 94.8706 86.1615 72.6067 47.2368 37.5592 37.0301 34.5813 31.5936 31.033 30.9957 29.4609 31.9233 29.0548 28.7858 27.5451 26.0902 25.8589 25.611 29.805 25.5154 25.1751 19.788 19.6272 24.6698 19.3093 18.8478 18.5172 18.1869 17.4563 17.2872 16.9231 14.9621 14.8389 15.0479 14.8286 14.3353 14.1527 13.7274 13.1624 12.8831 12.7202 12.5498 12.5004 12.4976 12.4112 12.3815 12.2148 12.0559 12.0162 11.917 11.8372 11.7948 13.017 11.4369
threshold=1.8929312893750001 3.5867811587500005 0.92401761265625015 8.5150000000000023 55.345499038696296 8.9550000000000018 1.3730073042187503 12.405000000000003 4.8642936706250017 2.6270687868750007 0.68373703187500012 5.3833333333333337 1.2996688081250001 0 132.96299743652347 1 0.29047499687500006 2 11.485000000000001 60.388999938964851 3 3.7782250981250001 4 55.345499038696296 5 6 198.77099609375003 8.6450000000000014 2.5318062593750006 5.4667623900000004 3.2404687500000002 7.9250000000000007 11.875000000000002 7 8 87.837001800537124 87.837001800537124 9.2150000000000016 187.7289962768555 0.54213750812500006 132.96299743652347 9 83.038997650146499 26.361499786376957 10 11 1.216666666666667 8.6950000000000021 3.0910563662500006 2.8077125550000006 4.2307376100000003 458.16666666666669 5.535000000000001 198.77099609375003 5.3550000000000013 3.9897813412500001 8.5950000000000006 24.722499847412113 11.325000000000001 438.83333333333343 127.15900039672853 8.5500000000000025
decision_type=2 2 2 2 2 2 2 2 2 2 2 2 2 1 2 1 2 1 2 2 1 2 1 2 1 1 2 2 2 2 2 2 2 1 1 2 2 2 2 2 2 1 2 2 1 1 2 2 2 2 2 2 2 2 2 2 2 2 2 2 2 2
left_child=2 7 3 4 10 6 12 9 20 25 13 23 40 24 44 45 -13 -17 19 46 32 -10 30 57 61 26 37 51 47 -23 31 48 38 -12 -14 -9 -36 42 54 -18 41 -4 -2 -15 52 -6 -7 -19 -11 -16 -34 -22 -8 -32 -3 -40 -35 -5 -25 60 -24 -1
